{"learner":{"attributes":{"scikit_learn":"{\"_estimator_type\": \"classifier\"}"},"feature_names":[],"feature_types":[],"gradient_booster":{"model":{"gbtree_model_param":{"num_parallel_tree":"1","num_trees":"200"},"iteration_indptr":[0,1,2,3,4,5,6,7,8,9,10,11,12,13,14,15,16,17,18,19,20,21,22,23,24,25,26,27,28,29,30,31,32,33,34,35,36,37,38,39,40,41,42,43,44,45,46,47,48,49,50,51,52,53,54,55,56,57,58,59,60,61,62,63,64,65,66,67,68,69,70,71,72,73,74,75,76,77,78,79,80,81,82,83,84,85,86,87,88,89,90,91,92,93,94,95,96,97,98,99,100,101,102,103,104,105,106,107,108,109,110,111,112,113,114,115,116,117,118,119,120,121,122,123,124,125,126,127,128,129,130,131,132,133,134,135,136,137,138,139,140,141,142,143,144,145,146,147,148,149,150,151,152,153,154,155,156,157,158,159,160,161,162,163,164,165,166,167,168,169,170,171,172,173,174,175,176,177,178,179,180,181,182,183,184,185,186,187,188,189,190,191,192,193,194,195,196,197,198,199,200],"tree_info":[0,0,0,0,0,0,0,0,0,0,0,0,0,0,0,0,0,0,0,0,0,0,0,0,0,0,0,0,0,0,0,0,0,0,0,0,0,0,0,0,0,0,0,0,0,0,0,0,0,0,0,0,0,0,0,0,0,0,0,0,0,0,0,0,0,0,0,0,0,0,0,0,0,0,0,0,0,0,0,0,0,0,0,0,0,0,0,0,0,0,0,0,0,0,0,0,0,0,0,0,0,0,0,0,0,0,0,0,0,0,0,0,0,0,0,0,0,0,0,0,0,0,0,0,0,0,0,0,0,0,0,0,0,0,0,0,0,0,0,0,0,0,0,0,0,0,0,0,0,0,0,0,0,0,0,0,0,0,0,0,0,0,0,0,0,0,0,0,0,0,0,0,0,0,0,0,0,0,0,0,0,0,0,0,0,0,0,0,0,0,0,0,0,0,0,0,0,0,0,0],"trees":[{"base_weights":[6.246366E-1,1.9672354E0,-5.0105953E-1,5.163205E-2,2.202742E0,1.1469001E-1,-1.452826E0,3.5195515E-1,-1.1852266E0,2.3569899E0,-5.727755E-1,-9.621368E-1,1.3461497E0,-1.4611983E0,-5.027899E-1,8.078057E-1,-3.7874988E-1,-1.3585792E-1,6.234053E-3,2.395059E0,-1.1954351E-1,1.29273E-1,-8.600543E-1,9.389007E-1,-1.1419238E0,1.8304764E0,-5.637329E-1,-1.1006324E0,-1.4939759E0,6.234053E-3,-8.232557E-2,2.440485E-2,1.4707863E-1,-6.4822845E-2,1.2929897E-1,1.7021613E-1,2.5116414E-1,5.3070586E-2,-1.1024407E-1,1.3460863E-1,-6.312688E-2,-1.284844E-1,-3.6379438E-2,2.0427285E-1,-1.1356168E-1,-1.3727479E-1,-2.0208737E-2,-3.5103377E-2,-1.3208959E-1,-3.322462E-2,-1.5040143E-1],"categories":[],"categories_nodes":[],"categories_segments":[],"categories_sizes":[],"default_left":[0,0,0,0,0,0,0,0,0,0,0,0,0,0,0,0,0,0,0,0,0,0,0,0,0,0,0,0,0,0,0,0,0,0,0,0,0,0,0,0,0,0,0,0,0,0,0,0,0,0,0],"id":0,"left_children":[1,3,5,7,9,11,13,15,17,19,21,23,25,27,29,31,33,-1,-1,35,-1,-1,37,39,41,43,45,47,49,-1,-1,-1,-1,-1,-1,-1,-1,-1,-1,-1,-1,-1,-1,-1,-1,-1,-1,-1,-1,-1,-1],"loss_changes":[1.3915049E3,1.8927429E2,2.9392102E2,1.7869858E1,1.6138745E2,4.0610858E2,8.3206177E-1,1.315533E1,2.1194487E0,5.078235E1,1.2090349E1,5.6934692E1,1.3314911E2,6.569824E-1,6.390589E-1,8.639368E0,7.821287E0,0E0,0E0,2.40708E1,0E0,0E0,6.7716227E0,1.0229479E1,1.618901E1,7.419708E1,8.399651E0,2.8425941E0,1.5493164E0,0E0,0E0,0E0,0E0,0E0,0E0,0E0,0E0,0E0,0E0,0E0,0E0,0E0,0E0,0E0,0E0,0E0,0E0,0E0,0E0,0E0,0E0],"parents":[2147483647,0,0,1,1,2,2,3,3,4,4,5,5,6,6,7,7,8,8,9,9,10,10,11,11,12,12,13,13,14,14,15,15,16,16,19,19,22,22,23,23,24,24,25,25,26,26,27,27,28,28],"right_children":[2,4,6,8,10,12,14,16,18,20,22,24,26,28,30,32,34,-1,-1,36,-1,-1,38,40,42,44,46,48,50,-1,-1,-1,-1,-1,-1,-1,-1,-1,-1,-1,-1,-1,-1,-1,-1,-1,-1,-1,-1,-1,-1],"split_conditions":[2.0602504E4,1.2384843E5,1.580788E6,5E0,1.2403538E6,6.312121E5,9E0,3.2553303E4,5E0,6.819176E6,9.142592E5,1.08E2,1.113E3,1.3628817E5,1E1,2.998106E4,5.2584254E4,-1.3585792E-1,6.234053E-3,4.4136428E5,-1.1954351E-1,1.29273E-1,1.992E3,8E0,3.6230622E5,6.5889555E6,6.8221365E6,3.1261875E6,1.7217608E6,6.234053E-3,-8.232557E-2,2.440485E-2,1.4707863E-1,-6.4822845E-2,1.2929897E-1,1.7021613E-1,2.5116414E-1,5.3070586E-2,-1.1024407E-1,1.3460863E-1,-6.312688E-2,-1.284844E-1,-3.6379438E-2,2.0427285E-1,-1.1356168E-1,-1.3727479E-1,-2.0208737E-2,-3.5103377E-2,-1.3208959E-1,-3.322462E-2,-1.5040143E-1],"split_indices":[144,3,141,21,141,3,19,2,31,2,2,159,159,143,19,141,2,0,0,3,0,0,144,19,142,2,5,141,141,0,0,0,0,0,0,0,0,0,0,0,0,0,0,0,0,0,0,0,0,0,0],"split_type":[0,0,0,0,0,0,0,0,0,0,0,0,0,0,0,0,0,0,0,0,0,0,0,0,0,0,0,0,0,0,0,0,0,0,0,0,0,0,0,0,0,0,0,0,0,0,0,0,0,0,0],"sum_hessian":[9.1904596E2,4.188012E2,5.0024475E2,4.5984447E1,3.7281674E2,3.0427332E2,1.9597145E2,3.7576015E1,8.408433E0,3.533314E2,1.948538E1,1.62445E2,1.418283E2,1.9372617E2,2.2452824E0,2.3075094E1,1.450092E1,7.3044744E0,1.1039582E0,3.499074E2,3.4239724E0,2.1331847E0,1.7352196E1,1.36707325E1,1.4877428E2,1.1317088E2,2.865741E1,1.9024782E1,1.7470139E2,1.1039582E0,1.1413242E0,1.3210133E1,9.864962E0,1.3015164E1,1.4857562E0,5.2640755E1,2.9726666E2,2.3988154E0,1.4953381E1,1.096892E1,2.701812E0,1.25138695E2,2.3635584E1,1.0590378E2,7.2671084E0,7.989269E0,2.066814E1,4.9097285E0,1.4115053E1,1.7887527E0,1.7291264E2],"tree_param":{"num_deleted":"0","num_feature":"671","num_nodes":"51","size_leaf_vector":"1"}},{"base_weights":[5.6935936E-1,1.655111E0,-4.1860932E-1,2.7992167E-3,1.8443116E0,1.5217486E-1,-1.3745857E0,6.963842E-1,-7.0137095E-1,1.9759489E0,-6.496337E-1,1.08336E0,-1.0211989E0,-1.3828149E0,-4.8032764E-1,-1.09946206E-1,9.531839E-1,-2.7078483E-1,-1.3519977E-1,2.0059524E0,-1.1378578E-1,1.1752488E-1,-9.270792E-1,1.4821855E0,-4.6331093E-1,2.879794E-1,-1.2174999E0,-5.077106E-1,-1.391587E0,8.825622E-3,-8.118541E-2,1.7670582E-1,2.6208822E-2,7.890515E-2,-7.5005285E-2,2.0241912E-1,-6.344304E-2,-1.3546798E-1,-3.160463E-2,1.6327582E-1,-1.08856596E-1,1.0022628E-2,-9.611492E-2,-1.7990863E-2,1.2057922E-1,-1.3241282E-1,3.5320711E-3,-8.471546E-2,1.1922244E-2,-4.042002E-2,-1.4003761E-1],"categories":[],"categories_nodes":[],"categories_segments":[],"categories_sizes":[],"default_left":[0,0,0,0,0,0,0,0,0,0,0,0,0,0,0,0,0,0,0,0,0,0,0,0,0,0,0,0,0,0,0,0,0,0,0,0,0,0,0,0,0,0,0,0,0,0,0,0,0,0,0],"id":1,"left_children":[1,3,5,7,9,11,13,15,17,19,21,23,25,27,29,-1,31,33,-1,35,-1,-1,37,39,41,43,45,47,49,-1,-1,-1,-1,-1,-1,-1,-1,-1,-1,-1,-1,-1,-1,-1,-1,-1,-1,-1,-1,-1,-1],"loss_changes":[1.0118054E3,1.4044702E2,2.699378E2,2.3521996E1,1.3362512E2,3.4027682E2,6.965027E-1,1.2236464E1,6.329561E0,3.8078613E1,1.1703412E1,1.07744354E2,3.5780243E1,6.958618E-1,6.782884E-1,0E0,1.1776869E1,8.53231E0,0E0,1.9577148E1,0E0,0E0,4.4723454E0,5.5278076E1,1.029167E1,8.283716E0,1.6087463E1,8.218865E-1,9.986267E-1,0E0,0E0,0E0,0E0,0E0,0E0,0E0,0E0,0E0,0E0,0E0,0E0,0E0,0E0,0E0,0E0,0E0,0E0,0E0,0E0,0E0,0E0],"parents":[2147483647,0,0,1,1,2,2,3,3,4,4,5,5,6,6,7,7,8,8,9,9,10,10,11,11,12,12,13,13,14,14,16,16,17,17,19,19,22,22,23,23,24,24,25,25,26,26,27,27,28,28],"right_children":[2,4,6,8,10,12,14,16,18,20,22,24,26,28,30,-1,32,34,-1,36,-1,-1,38,40,42,44,46,48,50,-1,-1,-1,-1,-1,-1,-1,-1,-1,-1,-1,-1,-1,-1,-1,-1,-1,-1,-1,-1,-1,-1],"split_conditions":[2.0602504E4,6.1968006E5,1.580788E6,3.004E3,1.2403538E6,6E0,9E0,3.000122E0,2E0,6.819176E6,9.142592E5,1.0647015E3,2.2400049E2,3.3686415E6,1.666434E6,-1.09946206E-1,4.3333935E1,1.27015656E2,-1.3519977E-1,1.4380143E3,-1.1378578E-1,1.1752488E-1,2.4860361E4,7.467728E7,2.159182E3,2.0650939E5,2.3366598E5,3E0,1.7217608E6,8.825622E-3,-8.118541E-2,1.7670582E-1,2.6208822E-2,7.890515E-2,-7.5005285E-2,2.0241912E-1,-6.344304E-2,-1.3546798E-1,-3.160463E-2,1.6327582E-1,-1.08856596E-1,1.0022628E-2,-9.611492E-2,-1.7990863E-2,1.2057922E-1,-1.3241282E-1,3.5320711E-3,-8.471546E-2,1.1922244E-2,-4.042002E-2,-1.4003761E-1],"split_indices":[144,5,141,144,141,19,19,159,38,2,2,159,159,4,142,0,159,159,0,159,0,0,143,4,159,143,144,34,141,0,0,0,0,0,0,0,0,0,0,0,0,0,0,0,0,0,0,0,0,0,0],"split_type":[0,0,0,0,0,0,0,0,0,0,0,0,0,0,0,0,0,0,0,0,0,0,0,0,0,0,0,0,0,0,0,0,0,0,0,0,0,0,0,0,0,0,0,0,0,0,0,0,0,0,0],"sum_hessian":[9.415966E2,4.4827686E2,4.9331973E2,4.6161106E1,4.0211575E2,3.094171E2,1.8390263E2,2.3260912E1,2.2900192E1,3.821524E2,1.996336E1,1.7255489E2,1.3686221E2,1.816844E2,2.2182245E0,2.4995704E0,2.0761341E1,1.4632539E1,8.267653E0,3.7885764E2,3.2947516E0,2.207525E0,1.7755835E1,1.372144E2,3.5340496E1,1.7784704E1,1.19077515E2,2.3874876E0,1.7929692E2,1.0872782E0,1.1309463E0,8.818854E0,1.1942488E1,4.3552113E0,1.02773285E1,3.7649036E2,2.3672853E0,9.729855E0,8.02598E0,1.2996692E2,7.2474775E0,1.6951082E1,1.8389414E1,1.2312134E1,5.4725704E0,1.0968522E2,9.392289E0,1.3209889E0,1.0664989E0,1.9964573E0,1.7730046E2],"tree_param":{"num_deleted":"0","num_feature":"671","num_nodes":"51","size_leaf_vector":"1"}},{"base_weights":[5.359634E-1,1.2390156E0,-7.349534E-1,1.4122438E0,-8.470764E-1,-1.9213504E-1,-1.3432357E0,1.521772E0,-1.0161161E0,8.7272805E-1,-1.1628492E0,8.6506057E-1,-1.0383604E0,-1.3529283E0,-3.80243E-2,-4.2609606E-2,1.67356E0,7.6251596E-2,-1.144959E0,1.2590832E0,-7.859539E-2,-1.246493E0,5.176678E-2,1.1276969E0,-9.816629E-1,1.6923909E-1,-1.2125969E0,-5.3321993E-1,-1.3630582E-1,2.5194645E-2,-1.0167942E-1,1.7171133E-1,-1.2506191E-1,-1.2878917E-1,3.374522E-2,1.4882441E-1,4.5365524E-3,-2.4573345E-2,-1.3202459E-1,1.460791E-1,-2.0785378E-2,-2.3732746E-2,-1.2725924E-1,-6.1301965E-2,1.02403365E-1,-1.3393572E-1,-1.2822936E-2,1.4446261E-2,-8.743913E-2],"categories":[],"categories_nodes":[],"categories_segments":[],"categories_sizes":[],"default_left":[0,0,0,0,0,0,0,0,0,0,0,0,0,0,0,0,0,0,0,0,0,0,0,0,0,0,0,0,0,0,0,0,0,0,0,0,0,0,0,0,0,0,0,0,0,0,0,0,0],"id":2,"left_children":[1,3,5,7,9,11,13,15,17,19,21,23,25,27,-1,29,31,-1,33,35,-1,37,-1,39,41,43,45,47,-1,-1,-1,-1,-1,-1,-1,-1,-1,-1,-1,-1,-1,-1,-1,-1,-1,-1,-1,-1,-1],"loss_changes":[8.425311E2,2.2048035E2,1.1071828E2,1.5066785E2,2.6621075E1,1.6083487E2,9.633789E-1,1.2755237E2,6.5554523E0,6.043032E0,6.3051643E0,3.9920708E1,2.1193283E1,5.715027E-1,0E0,1.4161495E1,6.447693E1,0E0,5.418375E0,1.8183079E0,0E0,2.528267E0,0E0,3.1678505E1,1.9714384E0,9.624708E0,1.1827301E1,9.473839E-1,0E0,0E0,0E0,0E0,0E0,0E0,0E0,0E0,0E0,0E0,0E0,0E0,0E0,0E0,0E0,0E0,0E0,0E0,0E0,0E0,0E0],"parents":[2147483647,0,0,1,1,2,2,3,3,4,4,5,5,6,6,7,7,8,8,9,9,10,10,11,11,12,12,13,13,15,15,16,16,18,18,19,19,21,21,23,23,24,24,25,25,26,26,27,27],"right_children":[2,4,6,8,10,12,14,16,18,20,22,24,26,28,-1,30,32,-1,34,36,-1,38,-1,40,42,44,46,48,-1,-1,-1,-1,-1,-1,-1,-1,-1,-1,-1,-1,-1,-1,-1,-1,-1,-1,-1,-1,-1],"split_conditions":[5.3711082E4,1.0126524E3,1.7217608E6,2.7030112E6,2E0,6E0,9E0,1.2384843E5,1.992E3,6.819176E6,3E0,2.453E3,2.2400049E2,3.3686415E6,-3.80243E-2,5E0,6.819176E6,7.6251596E-2,7.960677E2,1.3944694E-1,-7.859539E-2,1.2998002E4,5.176678E-2,8.711375E5,4.1758105E3,3.485114E5,2.3366598E5,5E0,-1.3630582E-1,2.5194645E-2,-1.0167942E-1,1.7171133E-1,-1.2506191E-1,-1.2878917E-1,3.374522E-2,1.4882441E-1,4.5365524E-3,-2.4573345E-2,-1.3202459E-1,1.460791E-1,-2.0785378E-2,-2.3732746E-2,-1.2725924E-1,-6.1301965E-2,1.02403365E-1,-1.3393572E-1,-1.2822936E-2,1.4446261E-2,-8.743913E-2],"split_indices":[144,159,141,141,19,19,19,3,144,2,45,159,159,4,0,21,2,0,159,139,0,144,0,141,159,3,144,20,0,0,0,0,0,0,0,0,0,0,0,0,0,0,0,0,0,0,0,0,0],"split_type":[0,0,0,0,0,0,0,0,0,0,0,0,0,0,0,0,0,0,0,0,0,0,0,0,0,0,0,0,0,0,0,0,0,0,0,0,0,0,0,0,0,0,0,0,0,0,0,0,0],"sum_hessian":[9.409148E2,6.058131E2,3.3510165E2,5.5966205E2,4.615109E1,1.777749E2,1.5732674E2,5.358658E2,2.3796247E1,6.885665E0,3.9265423E1,7.90255E1,9.8749405E1,1.5535812E2,1.9686166E0,4.7458694E1,4.884071E2,1.2751426E0,2.2521105E1,5.780202E0,1.1054629E0,3.7649765E1,1.615659E0,6.952691E1,9.498586E0,1.2454991E1,8.629442E1,2.551239E0,1.5280688E2,3.7009743E1,1.0448951E1,4.8164618E2,6.7609196E0,2.0660278E1,1.8608267E0,4.6719155E0,1.1082864E0,2.8815553E0,3.4768208E1,5.557293E1,1.3953983E1,3.1795485E0,6.319037E0,6.6511173E0,5.803874E0,7.705204E1,9.242374E0,1.0473711E0,1.5038677E0],"tree_param":{"num_deleted":"0","num_feature":"671","num_nodes":"49","size_leaf_vector":"1"}},{"base_weights":[4.6622106E-1,1.3312169E0,-3.7669873E-1,4.0982634E-2,1.4691945E0,1.02106385E-1,-1.2563381E0,3.672861E-1,-8.8692087E-1,1.5717399E0,-5.3309906E-1,-9.192137E-1,8.307529E-1,-8.981822E-1,-1.289759E0,9.525049E-1,-2.872474E-1,-1.0985664E0,-1.212401E-1,1.5987641E0,-1.08110726E-1,3.5536024E-1,-1.0484838E0,6.686611E-1,-1.0466326E0,1.0889498E0,-7.967126E-1,-3.1449673E-1,-1.1085898E0,-3.439672E-2,-1.2997041E0,-7.992428E-2,1.1121327E-1,-5.9553593E-2,1.4919285E-1,-1.2708162E-1,1.4599499E-2,9.978407E-2,-9.255771E-2,1.6119644E-1,-9.8211154E-2,8.0985E-2,-5.2732434E-2,-1.16033494E-1,1.4987293E-2,1.3408649E-1,-2.5837893E-2,-1.14022695E-1,1.0928076E-1,1.22549646E-1,-1.12652235E-1,-1.2736852E-1,-3.588933E-2,-1.0052313E-1,3.252035E-2,-1.2286492E-1,-4.4943858E-2,-1.3096626E-1,-3.639586E-2],"categories":[],"categories_nodes":[],"categories_segments":[],"categories_sizes":[],"default_left":[0,0,0,0,0,0,0,0,0,0,0,0,0,0,0,0,0,0,0,0,0,0,0,0,0,0,0,0,0,0,0,0,0,0,0,0,0,0,0,0,0,0,0,0,0,0,0,0,0,0,0,0,0,0,0,0,0,0,0],"id":3,"left_children":[1,3,5,7,9,11,13,15,17,19,21,23,25,27,29,31,33,35,37,39,-1,41,43,45,47,49,51,53,55,-1,57,-1,-1,-1,-1,-1,-1,-1,-1,-1,-1,-1,-1,-1,-1,-1,-1,-1,-1,-1,-1,-1,-1,-1,-1,-1,-1,-1,-1],"loss_changes":[6.8194214E2,8.209442E1,1.9981694E2,1.4136028E1,8.643225E1,2.299231E2,8.4277344E-1,1.34704E1,1.8373013E0,3.0176514E1,1.0014185E1,2.673748E1,7.660691E1,1.8083048E0,9.697113E-1,6.039873E0,1.0230182E1,2.20115E0,4.3055677E0,1.497937E1,0E0,3.8278198E0,1.99401E0,6.683944E0,2.5179047E1,4.8568542E1,4.817354E0,3.0000255E0,4.380741E-1,0E0,9.0896606E-1,0E0,0E0,0E0,0E0,0E0,0E0,0E0,0E0,0E0,0E0,0E0,0E0,0E0,0E0,0E0,0E0,0E0,0E0,0E0,0E0,0E0,0E0,0E0,0E0,0E0,0E0,0E0,0E0],"parents":[2147483647,0,0,1,1,2,2,3,3,4,4,5,5,6,6,7,7,8,8,9,9,10,10,11,11,12,12,13,13,14,14,15,15,16,16,17,17,18,18,19,19,21,21,22,22,23,23,24,24,25,25,26,26,27,27,28,28,30,30],"right_children":[2,4,6,8,10,12,14,16,18,20,22,24,26,28,30,32,34,36,38,40,-1,42,44,46,48,50,52,54,56,-1,58,-1,-1,-1,-1,-1,-1,-1,-1,-1,-1,-1,-1,-1,-1,-1,-1,-1,-1,-1,-1,-1,-1,-1,-1,-1,-1,-1,-1],"split_conditions":[2.0602504E4,1.2384843E5,1.580788E6,1.3773162E0,1.2403538E6,3.5639472E5,1.3628817E5,2.8927047E4,3.0239346E4,6.819176E6,1.3007776E7,6.900264E1,2.0927812E3,3.1261875E6,1.7217608E6,3.000122E0,2.9809014E4,3E0,2E0,1.4380143E3,-1.08110726E-1,7.462002E3,8.304904E2,5.8567225E5,2E0,2.103767E7,7.3881055E6,4.7270887E4,1.2007785E5,-3.439672E-2,9E0,-7.992428E-2,1.1121327E-1,-5.9553593E-2,1.4919285E-1,-1.2708162E-1,1.4599499E-2,9.978407E-2,-9.255771E-2,1.6119644E-1,-9.8211154E-2,8.0985E-2,-5.2732434E-2,-1.16033494E-1,1.4987293E-2,1.3408649E-1,-2.5837893E-2,-1.14022695E-1,1.0928076E-1,1.22549646E-1,-1.12652235E-1,-1.2736852E-1,-3.588933E-2,-1.0052313E-1,3.252035E-2,-1.2286492E-1,-4.4943858E-2,-1.3096626E-1,-3.639586E-2],"split_indices":[144,3,141,139,141,3,143,2,142,2,3,159,159,141,141,159,143,46,47,159,0,144,159,4,56,3,138,144,143,0,19,0,0,0,0,0,0,0,0,0,0,0,0,0,0,0,0,0,0,0,0,0,0,0,0,0,0,0,0],"split_type":[0,0,0,0,0,0,0,0,0,0,0,0,0,0,0,0,0,0,0,0,0,0,0,0,0,0,0,0,0,0,0,0,0,0,0,0,0,0,0,0,0,0,0,0,0,0,0,0,0,0,0,0,0,0,0,0,0,0,0],"sum_hessian":[9.3360425E2,4.6048245E2,4.731218E2,4.4611866E1,4.1587057E2,3.0693497E2,1.6618683E2,3.3452312E1,1.1159553E1,3.958144E2,2.0056189E1,1.2769188E2,1.7924309E2,1.6563072E1,1.4962376E2,1.7420969E1,1.6031343E1,8.40228E0,2.7572727E0,3.9221628E2,3.5981195E0,7.4770975E0,1.2579092E1,9.1699295E0,1.1852195E2,1.5498557E2,2.425752E1,5.0496593E0,1.1513413E1,1.9272215E0,1.4769653E2,1.1202693E0,1.6300701E1,1.4230766E1,1.8005766E0,7.362236E0,1.0400435E0,1.0524353E0,1.7048374E0,3.9059393E2,1.622335E0,4.990189E0,2.4869084E0,1.1534247E1,1.0448449E0,5.0568066E0,4.113123E0,1.1400175E2,4.520202E0,1.4640877E2,8.576789E0,1.0695923E1,1.3561598E1,2.1532338E0,2.8964255E0,9.008581E0,2.5048323E0,1.4574586E2,1.9506755E0],"tree_param":{"num_deleted":"0","num_feature":"671","num_nodes":"59","size_leaf_vector":"1"}},{"base_weights":[4.265982E-1,1.2125542E0,-3.7089399E-1,7.352156E-2,1.3377652E0,8.118895E-2,-1.2404972E0,3.1515098E-1,-1.1916023E-1,1.4167242E0,-6.5672356E-1,-8.7861544E-1,7.7098805E-1,-1.249944E0,-2.4622064E-2,6.880606E-1,-3.3831295E-1,1.446667E0,-5.818576E-1,9.95276E-2,-9.2115337E-1,8.29735E-1,-1.0382458E0,1.0232638E0,-7.669963E-1,-5.2544487E-1,-1.2591753E0,-9.775459E-2,8.673306E-2,-8.252981E-2,6.4334646E-2,9.900161E-2,1.5234143E-1,5.7071067E-2,-1.1944324E-1,-1.11571826E-1,8.182163E-3,1.1543327E-1,-8.847151E-2,-1.1170407E-1,8.1458814E-2,1.2761013E-1,-1.684902E-2,-1.238019E-1,-3.291378E-2,-8.685801E-2,1.8379083E-2,-3.372354E-2,-1.2688118E-1],"categories":[],"categories_nodes":[],"categories_segments":[],"categories_sizes":[],"default_left":[0,0,0,0,0,0,0,0,0,0,0,0,0,0,0,0,0,0,0,0,0,0,0,0,0,0,0,0,0,0,0,0,0,0,0,0,0,0,0,0,0,0,0,0,0,0,0,0,0],"id":4,"left_children":[1,3,5,7,9,11,13,15,-1,17,19,21,23,25,-1,27,29,31,33,-1,35,37,39,41,43,45,47,-1,-1,-1,-1,-1,-1,-1,-1,-1,-1,-1,-1,-1,-1,-1,-1,-1,-1,-1,-1,-1,-1],"loss_changes":[5.704645E2,6.525751E1,1.7785954E2,1.4572972E1,6.5940796E1,1.9826428E2,1.1455078E0,9.928111E0,0E0,2.462378E1,8.082468E0,3.502098E1,6.83641E1,3.617859E-1,0E0,8.509964E0,7.7619734E0,1.2224182E1,5.326832E0,0E0,2.951993E0,7.2876344E0,1.7699463E1,4.543097E1,4.7723894E0,1.0458055E0,9.0812683E-1,0E0,0E0,0E0,0E0,0E0,0E0,0E0,0E0,0E0,0E0,0E0,0E0,0E0,0E0,0E0,0E0,0E0,0E0,0E0,0E0,0E0,0E0],"parents":[2147483647,0,0,1,1,2,2,3,3,4,4,5,5,6,6,7,7,9,9,10,10,11,11,12,12,13,13,15,15,16,16,17,17,18,18,20,20,21,21,22,22,23,23,24,24,25,25,26,26],"right_children":[2,4,6,8,10,12,14,16,-1,18,20,22,24,26,-1,28,30,32,34,-1,36,38,40,42,44,46,48,-1,-1,-1,-1,-1,-1,-1,-1,-1,-1,-1,-1,-1,-1,-1,-1,-1,-1,-1,-1,-1,-1],"split_conditions":[2.0602504E4,1.2384843E5,1.580788E6,5E0,2.1135642E6,2.7627142E6,9E0,3.2553303E4,-1.1916023E-1,7.467728E7,1.992E3,6.900264E1,2.0927812E3,3.3686415E6,-2.4622064E-2,3.000122E0,4.9196394E5,4.4136428E5,3.1080784E1,9.95276E-2,7.363624E2,8E0,2E0,8.711375E5,7.3881055E6,9.4111256E5,1.7217608E6,-9.775459E-2,8.673306E-2,-8.252981E-2,6.4334646E-2,9.900161E-2,1.5234143E-1,5.7071067E-2,-1.1944324E-1,-1.11571826E-1,8.182163E-3,1.1543327E-1,-8.847151E-2,-1.1170407E-1,8.1458814E-2,1.2761013E-1,-1.684902E-2,-1.238019E-1,-3.291378E-2,-8.685801E-2,1.8379083E-2,-3.372354E-2,-1.2688118E-1],"split_indices":[144,3,141,21,141,5,19,2,0,4,144,159,159,4,0,159,5,3,159,0,159,20,56,141,5,3,141,0,0,0,0,0,0,0,0,0,0,0,0,0,0,0,0,0,0,0,0,0,0],"split_type":[0,0,0,0,0,0,0,0,0,0,0,0,0,0,0,0,0,0,0,0,0,0,0,0,0,0,0,0,0,0,0,0,0,0,0,0,0,0,0,0,0,0,0,0,0,0,0,0,0],"sum_hessian":[9.084136E2,4.5725375E2,4.511598E2,4.5443733E1,4.1181003E2,2.9743704E2,1.5372275E2,3.878666E1,6.6570754E0,3.9640656E2,1.5403488E1,1.2426197E2,1.7317506E2,1.5202122E2,1.7015214E0,2.4660696E1,1.4125962E1,3.9082733E2,5.579222E0,1.744022E0,1.3659466E1,1.026021E1,1.1400176E2,1.490595E2,2.4115576E1,2.6413317E0,1.493799E2,1.9636256E0,2.2697071E1,9.548426E0,4.5775356E0,5.8233616E1,3.325937E2,1.9599288E0,3.6192935E0,1.134606E1,2.313406E0,8.901575E0,1.3586352E0,1.0973233E2,4.269431E0,1.22912186E2,2.6147308E1,1.0737433E1,1.3378143E1,1.6286863E0,1.0126452E0,1.9175837E0,1.4746231E2],"tree_param":{"num_deleted":"0","num_feature":"671","num_nodes":"49","size_leaf_vector":"1"}},{"base_weights":[3.84113E-1,9.082946E-1,-6.4112014E-1,1.0290364E0,-7.085587E-1,-1.5180755E-1,-1.1356559E0,1.1087224E0,-8.7785715E-1,8.1233686E-1,-1.0404842E0,-9.5565826E-1,6.906508E-1,-1.1547737E0,1.4447826E-1,3.2709828E-1,1.3027257E0,-1.0125879E0,6.69092E-2,1.1982718E0,-7.567349E-2,-1.124544E0,3.967462E-2,4.421221E-1,-1.1100134E0,9.6618164E-1,-8.121333E-1,-9.0400136E-1,-1.2124852E0,9.452756E-2,-7.43068E-2,5.3309876E-2,-2.9850623E-2,1.3498174E-1,-9.4087236E-2,6.140805E-2,-1.1540383E-1,1.4494067E-1,3.0710358E-2,-8.916335E-3,-1.1628892E-1,8.047696E-2,-8.651872E-2,-1.1979584E-1,9.952145E-2,1.1115479E-1,-1.1783298E-1,-1.0457327E-1,1.7128559E-2,-1.0494252E-1,3.8974524E-2,-5.8529943E-2,-1.2257879E-1],"categories":[],"categories_nodes":[],"categories_segments":[],"categories_sizes":[],"default_left":[0,0,0,0,0,0,0,0,0,0,0,0,0,0,0,0,0,0,0,0,0,0,0,0,0,0,0,0,0,0,0,0,0,0,0,0,0,0,0,0,0,0,0,0,0,0,0,0,0,0,0,0,0],"id":5,"left_children":[1,3,5,7,9,11,13,15,17,19,21,23,25,27,29,31,33,35,-1,37,-1,39,-1,41,43,45,47,49,51,-1,-1,-1,-1,-1,-1,-1,-1,-1,-1,-1,-1,-1,-1,-1,-1,-1,-1,-1,-1,-1,-1,-1,-1],"loss_changes":[4.7934393E2,1.1588937E2,7.290061E1,8.444287E1,2.1837204E1,1.0423538E2,3.838623E0,7.959607E1,5.386221E0,5.757884E0,4.6228943E0,1.7467392E1,3.1946728E1,1.0449066E0,2.903187E0,1.3854954E1,4.5903625E1,5.582058E0,0E0,1.0804596E0,0E0,1.2033882E0,0E0,4.7450852E0,1.4364258E1,2.1278328E1,2.9826765E0,6.355505E0,2.614441E-1,0E0,0E0,0E0,0E0,0E0,0E0,0E0,0E0,0E0,0E0,0E0,0E0,0E0,0E0,0E0,0E0,0E0,0E0,0E0,0E0,0E0,0E0,0E0,0E0],"parents":[2147483647,0,0,1,1,2,2,3,3,4,4,5,5,6,6,7,7,8,8,9,9,10,10,11,11,12,12,13,13,14,14,15,15,16,16,17,17,19,19,21,21,23,23,24,24,25,25,26,26,27,27,28,28],"right_children":[2,4,6,8,10,12,14,16,18,20,22,24,26,28,30,32,34,36,-1,38,-1,40,-1,42,44,46,48,50,52,-1,-1,-1,-1,-1,-1,-1,-1,-1,-1,-1,-1,-1,-1,-1,-1,-1,-1,-1,-1,-1,-1,-1,-1],"split_conditions":[5.3711082E4,1.0126524E3,1.01069344E6,2.7030112E6,2.546778E-1,3.827161E5,5E0,3.083216E5,7.960677E2,6.819176E6,2E0,1.9200699E2,2.0927812E3,1.7026791E6,7.823215E5,6E0,7.467728E7,1.968E3,6.69092E-2,1.6689352E4,-7.567349E-2,3.9332637E-1,3.967462E-2,7E0,2E0,6.5889555E6,9.6450075E5,2.9176982E6,7.09997E4,9.452756E-2,-7.43068E-2,5.3309876E-2,-2.9850623E-2,1.3498174E-1,-9.4087236E-2,6.140805E-2,-1.1540383E-1,1.4494067E-1,3.0710358E-2,-8.916335E-3,-1.1628892E-1,8.047696E-2,-8.651872E-2,-1.1979584E-1,9.952145E-2,1.1115479E-1,-1.1783298E-1,-1.0457327E-1,1.7128559E-2,-1.0494252E-1,3.8974524E-2,-5.8529943E-2,-1.2257879E-1],"split_indices":[144,159,141,141,139,3,27,3,159,2,55,159,159,2,144,19,4,144,0,144,0,139,0,21,56,2,141,3,144,0,0,0,0,0,0,0,0,0,0,0,0,0,0,0,0,0,0,0,0,0,0,0,0],"split_type":[0,0,0,0,0,0,0,0,0,0,0,0,0,0,0,0,0,0,0,0,0,0,0,0,0,0,0,0,0,0,0,0,0,0,0,0,0,0,0,0,0,0,0,0,0,0,0,0,0,0,0,0,0],"sum_hessian":[8.898713E2,5.8889496E2,3.0097635E2,5.483122E2,4.0582764E1,1.5194406E2,1.4903229E2,5.2672E2,2.1592213E1,7.0109534E0,3.3571808E1,7.768489E1,7.425916E1,1.4693585E2,2.0964465E0,1.0527226E2,4.214477E2,2.0180069E1,1.4121444E0,5.8165984E0,1.1943549E0,3.1922316E1,1.6494926E0,7.5401254E0,7.014477E1,6.3055252E1,1.1203914E1,3.0606476E1,1.1632937E2,1.0678892E0,1.0285573E0,7.930605E1,2.5966211E1,4.131738E2,8.273886E0,1.3471094E0,1.8832958E1,4.049126E0,1.7674725E0,1.2587702E0,3.0663546E1,6.2036433E0,1.3364824E0,6.774568E1,2.399087E0,5.950347E1,3.5517788E0,9.002188E0,2.2017267E0,2.7683548E1,2.9229276E0,3.3507214E0,1.1297865E2],"tree_param":{"num_deleted":"0","num_feature":"671","num_nodes":"53","size_leaf_vector":"1"}},{"base_weights":[3.6751574E-1,8.482236E-1,-5.890694E-1,9.625457E-1,-6.6458726E-1,-1.13243185E-1,-1.102577E0,1.0307903E0,-7.452789E-1,6.5088457E-1,-9.7921145E-1,7.700644E-1,-8.541628E-1,-1.1226062E0,1.3608323E-1,3.6418882E-1,1.22607E0,1.1268804E-1,-9.532477E-1,1.13192E0,-5.17165E-1,-1.0742621E0,6.045736E-2,9.281175E-1,-9.226298E-1,3.440814E-1,-1.071682E0,-8.567359E-1,-1.1900368E0,1.8612353E-2,2.2661581E-3,7.1029745E-2,-1.6105255E-2,1.269201E-1,-8.8428915E-2,-1.10001326E-1,1.7371552E-2,1.8661877E-2,1.6043279E-1,-4.1354396E-3,-7.2488226E-2,-2.254995E-2,-1.1466364E-1,4.666431E-2,1.7310381E-1,1.8198732E-2,-1.1647961E-1,8.626281E-2,-7.741266E-2,-1.22282974E-1,-3.103914E-2,-9.9590324E-2,2.8722597E-2,-5.4819833E-2,-1.2039939E-1],"categories":[],"categories_nodes":[],"categories_segments":[],"categories_sizes":[],"default_left":[0,0,0,0,0,0,0,0,0,0,0,0,0,0,0,0,0,0,0,0,0,0,0,0,0,0,0,0,0,0,0,0,0,0,0,0,0,0,0,0,0,0,0,0,0,0,0,0,0,0,0,0,0,0,0],"id":6,"left_children":[1,3,5,7,9,11,13,15,17,19,21,23,25,27,29,31,33,-1,35,37,39,41,-1,43,45,47,49,51,53,-1,-1,-1,-1,-1,-1,-1,-1,-1,-1,-1,-1,-1,-1,-1,-1,-1,-1,-1,-1,-1,-1,-1,-1,-1,-1],"loss_changes":[3.9502368E2,9.9466095E1,7.013252E1,6.2736023E1,1.7498669E1,9.906222E1,3.580902E0,6.615997E1,9.254499E0,5.3410063E0,5.6588135E0,1.9347069E1,2.1805084E1,1.420227E0,1.3323847E-2,2.1448334E1,3.710498E1,0E0,3.4083195E0,2.517808E0,2.818728E-1,1.6919136E0,0E0,2.2798985E1,1.9250255E0,8.433682E0,7.6580734E0,5.2376747E0,2.8941345E-1,0E0,0E0,0E0,0E0,0E0,0E0,0E0,0E0,0E0,0E0,0E0,0E0,0E0,0E0,0E0,0E0,0E0,0E0,0E0,0E0,0E0,0E0,0E0,0E0,0E0,0E0],"parents":[2147483647,0,0,1,1,2,2,3,3,4,4,5,5,6,6,7,7,8,8,9,9,10,10,11,11,12,12,13,13,14,14,15,15,16,16,18,18,19,19,20,20,21,21,23,23,24,24,25,25,26,26,27,27,28,28],"right_children":[2,4,6,8,10,12,14,16,18,20,22,24,26,28,30,32,34,-1,36,38,40,42,-1,44,46,48,50,52,54,-1,-1,-1,-1,-1,-1,-1,-1,-1,-1,-1,-1,-1,-1,-1,-1,-1,-1,-1,-1,-1,-1,-1,-1,-1,-1],"split_conditions":[5.3711082E4,1.0126524E3,1.01069344E6,2.7030112E6,3.9332637E-1,6E0,5E0,3.6552147E5,1.992E3,4.6866E5,3E0,6.5889555E6,2.2400049E2,1.7026791E6,5E0,2.3464487E2,2.0324858E7,1.1268804E-1,7.960677E2,6.379784E-2,9.965302E5,1.2998002E4,6.045736E-2,5.766615E6,6.59312E4,8E0,1.8688381E5,2.9176982E6,1.2192921E5,1.8612353E-2,2.2661581E-3,7.1029745E-2,-1.6105255E-2,1.269201E-1,-8.8428915E-2,-1.10001326E-1,1.7371552E-2,1.8661877E-2,1.6043279E-1,-4.1354396E-3,-7.2488226E-2,-2.254995E-2,-1.1466364E-1,4.666431E-2,1.7310381E-1,1.8198732E-2,-1.1647961E-1,8.626281E-2,-7.741266E-2,-1.22282974E-1,-3.103914E-2,-9.9590324E-2,2.8722597E-2,-5.4819833E-2,-1.2039939E-1],"split_indices":[144,159,141,141,139,19,27,3,144,141,44,2,159,2,29,159,3,0,159,139,141,144,0,2,144,19,144,3,143,0,0,0,0,0,0,0,0,0,0,0,0,0,0,0,0,0,0,0,0,0,0,0,0,0,0],"split_type":[0,0,0,0,0,0,0,0,0,0,0,0,0,0,0,0,0,0,0,0,0,0,0,0,0,0,0,0,0,0,0,0,0,0,0,0,0,0,0,0,0,0,0,0,0,0,0,0,0,0,0,0,0,0,0],"sum_hessian":[8.5696295E2,5.7042395E2,2.8653897E2,5.3068427E2,3.9739697E1,1.4935979E2,1.371792E2,5.1067416E2,2.0010113E1,7.4638615E0,3.2275837E1,6.8115135E1,8.124465E1,1.350885E2,2.0906932E0,1.1635449E2,3.9431967E2,1.5588309E0,1.8451283E1,5.308574E0,2.1552873E0,3.075197E1,1.523865E0,6.2711246E1,5.403888E0,1.2393108E1,6.885155E1,3.0102764E1,1.0498574E2,1.0059099E0,1.0847833E0,6.992499E1,4.6429504E1,3.8681268E2,7.5069904E0,1.634639E1,2.1048927E0,2.2337718E0,3.0748022E0,1.0193615E0,1.1359259E0,2.7395737E0,2.8012398E1,4.0827206E1,2.188404E1,1.0163617E0,4.3875265E0,8.62295E0,3.7701588E0,5.694028E1,1.1911263E1,2.6953228E1,3.1495361E0,3.091595E0,1.0189415E2],"tree_param":{"num_deleted":"0","num_feature":"671","num_nodes":"55","size_leaf_vector":"1"}},{"base_weights":[3.4000987E-1,9.4457906E-1,-3.0462405E-1,-1.7167024E-2,1.0652814E0,6.420923E-2,-1.0959033E0,9.6107125E-1,-2.2027926E-1,1.1366866E0,-3.7887838E-1,-7.5327873E-1,6.2198514E-1,-7.191518E-1,-1.1348124E0,-7.996749E-2,1.3666725E0,-7.046382E-1,3.4964564E-1,1.1571381E0,-9.53489E-2,-1.0711124E0,2.4372707E-1,7.122279E-1,-9.2689496E-1,8.173301E-1,-7.006632E-1,-1.1112213E-1,-2.882813E-1,-2.6473617E-2,-1.1471113E0,1.6296019E-1,2.7093887E-2,-1.434031E-2,-1.3533358E-1,1.017208E-1,-2.2203196E-2,-3.7195892E-3,1.1808046E-1,-1.2619556E-1,9.2833815E-3,7.0921466E-2,-9.192124E-2,-6.328233E-2,1.00532316E-1,-1.02501705E-1,9.662919E-2,9.238588E-2,-9.96853E-2,-8.2398914E-2,5.3890307E-2,2.7939482E-2,-9.5516294E-2,-1.1588786E-1,-3.2618985E-2],"categories":[],"categories_nodes":[],"categories_segments":[],"categories_sizes":[],"default_left":[0,0,0,0,0,0,0,0,0,0,0,0,0,0,0,0,0,0,0,0,0,0,0,0,0,0,0,0,0,0,0,0,0,0,0,0,0,0,0,0,0,0,0,0,0,0,0,0,0,0,0,0,0,0,0],"id":7,"left_children":[1,3,5,7,9,11,13,15,17,19,21,23,25,27,29,-1,31,33,35,37,-1,39,41,43,45,47,49,-1,51,-1,53,-1,-1,-1,-1,-1,-1,-1,-1,-1,-1,-1,-1,-1,-1,-1,-1,-1,-1,-1,-1,-1,-1,-1,-1],"loss_changes":[3.2745312E2,5.0334595E1,1.1886275E2,1.001058E1,4.014511E1,1.27489296E2,1.0816956E0,7.281542E0,1.1744123E1,1.6801483E1,8.404626E0,2.9521751E1,4.349762E1,2.1880937E0,9.335022E-1,0E0,1.6939678E0,8.124052E0,7.7835727E0,1.0336151E1,0E0,2.1457891E0,6.478013E0,5.5957427E0,1.991108E1,2.8986115E1,3.7946434E0,0E0,3.456225E0,0E0,7.203522E-1,0E0,0E0,0E0,0E0,0E0,0E0,0E0,0E0,0E0,0E0,0E0,0E0,0E0,0E0,0E0,0E0,0E0,0E0,0E0,0E0,0E0,0E0,0E0,0E0],"parents":[2147483647,0,0,1,1,2,2,3,3,4,4,5,5,6,6,7,7,8,8,9,9,10,10,11,11,12,12,13,13,14,14,16,16,17,17,18,18,19,19,21,21,22,22,23,23,24,24,25,25,26,26,28,28,30,30],"right_children":[2,4,6,8,10,12,14,16,18,20,22,24,26,28,30,-1,32,34,36,38,-1,40,42,44,46,48,50,-1,52,-1,54,-1,-1,-1,-1,-1,-1,-1,-1,-1,-1,-1,-1,-1,-1,-1,-1,-1,-1,-1,-1,-1,-1,-1,-1],"split_conditions":[2.0602504E4,4.6664547E5,1.580788E6,1.0550181E3,1.2403538E6,2.7627142E6,1.3628817E5,3.000122E0,3.9319617E4,6.819176E6,2E0,6.900264E1,2.0927812E3,4.8188E4,1.7217608E6,-7.996749E-2,1.4919E4,3E0,8.4336586E4,1.3E1,-9.53489E-2,7.285077E6,1.3843066E7,2E0,2E0,2.103767E7,4.574353E5,-1.1112213E-1,8.670214E2,-2.6473617E-2,9E0,1.6296019E-1,2.7093887E-2,-1.434031E-2,-1.3533358E-1,1.017208E-1,-2.2203196E-2,-3.7195892E-3,1.1808046E-1,-1.2619556E-1,9.2833815E-3,7.0921466E-2,-9.192124E-2,-6.328233E-2,1.00532316E-1,-1.02501705E-1,9.662919E-2,9.238588E-2,-9.96853E-2,-8.2398914E-2,5.3890307E-2,2.7939482E-2,-9.5516294E-2,-1.1588786E-1,-3.2618985E-2],"split_indices":[144,4,141,144,141,5,143,159,141,2,25,159,159,144,141,0,142,21,141,0,0,2,141,28,56,3,144,0,159,0,19,0,0,0,0,0,0,0,0,0,0,0,0,0,0,0,0,0,0,0,0,0,0,0,0],"split_type":[0,0,0,0,0,0,0,0,0,0,0,0,0,0,0,0,0,0,0,0,0,0,0,0,0,0,0,0,0,0,0,0,0,0,0,0,0,0,0,0,0,0,0,0,0,0,0,0,0,0,0,0,0,0,0],"sum_hessian":[8.384758E2,4.324437E2,4.0603214E2,4.8316868E1,3.8412683E2,2.7756952E2,1.2846262E2,7.665623E0,4.0651245E1,3.6623175E2,1.7895084E1,1.12433754E2,1.6513576E2,1.3848874E1,1.1461375E2,1.2533135E0,6.4123096E0,2.1847479E1,1.8803766E1,3.6312512E2,3.1066372E0,8.132605E0,9.762479E0,1.1580407E1,1.0085335E2,1.4421793E2,2.0917824E1,6.4241867E0,7.424687E0,1.911505E0,1.1270224E2,4.7784586E0,1.6338512E0,1.236805E1,9.479429E0,8.314904E0,1.0488861E1,7.044649E0,3.5608047E2,6.914657E0,1.2179477E0,7.2504916E0,2.511987E0,1.8645675E0,9.71584E0,9.631976E1,4.533585E0,1.366827E2,7.535238E0,1.9329926E1,1.5878971E0,4.324524E0,3.1001632E0,1.10703705E2,1.9985327E0],"tree_param":{"num_deleted":"0","num_feature":"671","num_nodes":"55","size_leaf_vector":"1"}},{"base_weights":[3.1417635E-1,8.9799535E-1,-3.1228855E-1,-8.272049E-3,1.0048448E0,2.9396864E-2,-1.078224E0,8.2366437E-1,-2.0553415E-1,1.071963E0,-3.1118044E-1,-7.4982446E-1,5.340235E-1,-8.291408E-1,-1.146191E0,-8.263989E-2,1.2499416E0,-7.5941664E-1,3.0679476E-1,1.0890949E0,-8.966116E-2,-1.0213068E0,2.878633E-1,6.074549E-1,-8.895133E-1,7.851894E-1,-4.8965955E-1,-9.1684157E-1,-2.8824065E-2,-1.1650898E-1,-5.1724887E-1,1.4874399E-1,2.5366172E-2,9.526031E-2,-9.2162535E-2,7.273121E-2,-5.7803627E-2,-1.6317884E-2,1.1111547E-1,-1.21489204E-1,1.4000768E-2,1.264773E-1,-1.7585522E-2,-3.670595E-2,9.670374E-2,-9.928809E-2,8.8833E-3,9.911659E-2,-1.7375268E-2,-8.727341E-2,5.6566145E-2,-5.0887432E-2,-1.0540252E-1,-6.9551334E-2,5.305919E-2,2.7941063E-2,-8.444245E-2],"categories":[],"categories_nodes":[],"categories_segments":[],"categories_sizes":[],"default_left":[0,0,0,0,0,0,0,0,0,0,0,0,0,0,0,0,0,0,0,0,0,0,0,0,0,0,0,0,0,0,0,0,0,0,0,0,0,0,0,0,0,0,0,0,0,0,0,0,0,0,0,0,0,0,0,0,0],"id":8,"left_children":[1,3,5,7,9,11,13,15,17,19,21,23,25,27,29,-1,31,33,35,37,-1,39,41,43,45,47,49,51,53,-1,55,-1,-1,-1,-1,-1,-1,-1,-1,-1,-1,-1,-1,-1,-1,-1,-1,-1,-1,-1,-1,-1,-1,-1,-1,-1,-1],"loss_changes":[2.96377E2,4.0611877E1,1.02429924E2,7.5894723E0,3.3465454E1,1.07174446E2,1.0934601E0,7.2690396E0,1.0831506E1,1.3020416E1,8.366684E0,2.0855091E1,4.2909462E1,2.0438366E0,4.9365997E-1,0E0,1.383975E0,5.9417257E0,7.9047704E0,9.97403E0,0E0,2.1716547E0,5.238894E0,4.0667973E0,9.953812E0,2.64803E1,1.3915758E1,9.49564E-1,1.8405238E0,0E0,1.4059823E0,0E0,0E0,0E0,0E0,0E0,0E0,0E0,0E0,0E0,0E0,0E0,0E0,0E0,0E0,0E0,0E0,0E0,0E0,0E0,0E0,0E0,0E0,0E0,0E0,0E0,0E0],"parents":[2147483647,0,0,1,1,2,2,3,3,4,4,5,5,6,6,7,7,8,8,9,9,10,10,11,11,12,12,13,13,14,14,16,16,17,17,18,18,19,19,21,21,22,22,23,23,24,24,25,25,26,26,27,27,28,28,30,30],"right_children":[2,4,6,8,10,12,14,16,18,20,22,24,26,28,30,-1,32,34,36,38,-1,40,42,44,46,48,50,52,54,-1,56,-1,-1,-1,-1,-1,-1,-1,-1,-1,-1,-1,-1,-1,-1,-1,-1,-1,-1,-1,-1,-1,-1,-1,-1,-1,-1],"split_conditions":[2.0602504E4,1.2384843E5,1.580788E6,1.0550181E3,1.2403538E6,2.7627142E6,9.99332E5,2.273263E0,2.998106E4,2.262576E7,2E0,6.900264E1,1.1630552E3,9.3174056E5,5.652107E7,-8.263989E-2,1.4919E4,2.454E3,1.1208572E5,1.3E1,-8.966116E-2,2.1382716E7,2.1135642E6,2.0319366E5,2E0,8.711375E5,2.3366598E5,1.2192921E5,1.9461592E7,-1.1650898E-1,1.1332125E8,1.4874399E-1,2.5366172E-2,9.526031E-2,-9.2162535E-2,7.273121E-2,-5.7803627E-2,-1.6317884E-2,1.1111547E-1,-1.21489204E-1,1.4000768E-2,1.264773E-1,-1.7585522E-2,-3.670595E-2,9.670374E-2,-9.928809E-2,8.8833E-3,9.911659E-2,-1.7375268E-2,-8.727341E-2,5.6566145E-2,-5.0887432E-2,-1.0540252E-1,-6.9551334E-2,5.305919E-2,2.7941063E-2,-8.444245E-2],"split_indices":[144,3,141,144,141,5,142,159,141,3,25,159,159,142,141,0,142,141,141,0,0,3,141,141,54,141,144,143,5,0,4,0,0,0,0,0,0,0,0,0,0,0,0,0,0,0,0,0,0,0,0,0,0,0,0,0,0],"split_type":[0,0,0,0,0,0,0,0,0,0,0,0,0,0,0,0,0,0,0,0,0,0,0,0,0,0,0,0,0,0,0,0,0,0,0,0,0,0,0,0,0,0,0,0,0,0,0,0,0,0,0,0,0,0,0,0,0],"sum_hessian":[8.085776E2,4.183101E2,3.9026752E2,4.4214813E1,3.7409528E2,2.7054047E2,1.1972705E2,7.865834E0,3.634898E1,3.5611844E2,1.7976843E1,1.06147095E2,1.6439337E2,2.8495825E1,9.123123E1,1.4221678E0,6.4436665E0,1.723443E1,1.9114548E1,3.534889E2,2.6295383E0,7.903215E0,1.0073628E1,9.592588E0,9.6554504E1,1.3219229E2,3.2201077E1,2.5550352E1,2.9454732E0,8.774225E1,3.4889784E0,4.805187E0,1.6384789E0,1.0698694E0,1.616456E1,1.3077478E1,6.0370708E0,6.0084596E0,3.4748044E2,6.7344766E0,1.1687384E0,2.686518E0,7.3871107E0,2.5799098E0,7.0126786E0,8.7314415E1,9.240093E0,1.08790886E2,2.3401405E1,2.37522E1,8.448876E0,7.6146774E0,1.7935675E1,1.2328855E0,1.7125876E0,1.0582279E0,2.4307506E0],"tree_param":{"num_deleted":"0","num_feature":"671","num_nodes":"57","size_leaf_vector":"1"}},{"base_weights":[2.8193042E-1,5.573227E-1,-8.5559505E-1,6.789277E-1,-1.0564991E0,4.2141044E-1,-9.467327E-1,8.013275E-1,-4.122173E-1,-2.1628836E-1,-1.1332933E0,1.1709564E0,-9.844031E-2,-7.909375E-1,-1.1058913E0,6.493546E-1,1.2518737E0,-1.2790713E-1,-8.2312536E-1,-8.2906015E-2,6.685487E-2,-1.2317548E-2,-1.1752585E-1,2.823785E-1,1.573774E-1,-9.373931E-1,-3.443798E-1,-1.1517222E-1,-7.136305E-1,9.21386E-2,-1.0746931E-1,1.2802367E-1,-1.7190356E-4,-4.325748E-2,6.3980766E-2,-8.589972E-3,-9.565011E-2,8.635185E-2,-4.091032E-2,-9.764346E-2,-8.1934435E-3,8.395677E-2,-9.7820826E-2,2.8566858E-2,-1.0340573E-1],"categories":[],"categories_nodes":[],"categories_segments":[],"categories_sizes":[],"default_left":[0,0,0,0,0,0,0,0,0,0,0,0,0,0,0,0,0,0,0,0,0,0,0,0,0,0,0,0,0,0,0,0,0,0,0,0,0,0,0,0,0,0,0,0,0],"id":9,"left_children":[1,3,5,7,9,11,13,15,17,19,21,23,-1,25,27,29,31,33,35,-1,-1,-1,-1,37,-1,39,41,-1,43,-1,-1,-1,-1,-1,-1,-1,-1,-1,-1,-1,-1,-1,-1,-1,-1],"loss_changes":[2.406896E2,1.2198923E2,1.7839264E1,7.715939E1,2.574051E0,1.2400388E1,2.6011734E0,3.4625916E1,6.7502127E0,3.208275E0,1.542244E0,2.2110853E0,0E0,4.53965E0,3.7952423E-1,1.8347903E2,4.605606E0,8.666138E0,2.259409E0,0E0,0E0,0E0,0E0,1.7729151E0,0E0,1.7704697E0,1.5786521E1,0E0,3.3758292E0,0E0,0E0,0E0,0E0,0E0,0E0,0E0,0E0,0E0,0E0,0E0,0E0,0E0,0E0,0E0,0E0],"parents":[2147483647,0,0,1,1,2,2,3,3,4,4,5,5,6,6,7,7,8,8,9,9,10,10,11,11,13,13,14,14,15,15,16,16,17,17,18,18,23,23,25,25,26,26,28,28],"right_children":[2,4,6,8,10,12,14,16,18,20,22,24,-1,26,28,30,32,34,36,-1,-1,-1,-1,38,-1,40,42,-1,44,-1,-1,-1,-1,-1,-1,-1,-1,-1,-1,-1,-1,-1,-1,-1,-1],"split_conditions":[1.0126524E3,7.285077E6,1.4772385E-1,6E0,8.125272E6,6.819176E6,4.1758105E3,6.855139E7,8E0,2.3554594E7,2.0597396E-2,5.588721E6,-9.844031E-2,2.3366598E5,3.601733E4,1.1127711E6,7.467728E7,2.122123E5,6.200075E1,-8.2906015E-2,6.685487E-2,-1.2317548E-2,-1.1752585E-1,1.3469023E4,1.573774E-1,2E0,7.944172E5,-1.1517222E-1,1.0111147E6,9.21386E-2,-1.0746931E-1,1.2802367E-1,-1.7190356E-4,-4.325748E-2,6.3980766E-2,-8.589972E-3,-9.565011E-2,8.635185E-2,-4.091032E-2,-9.764346E-2,-8.1934435E-3,8.395677E-2,-9.7820826E-2,2.8566858E-2,-1.0340573E-1],"split_indices":[159,2,139,19,2,2,159,4,19,3,139,2,0,144,159,2,4,143,159,0,0,0,0,142,0,55,142,0,143,0,0,0,0,0,0,0,0,0,0,0,0,0,0,0,0],"split_type":[0,0,0,0,0,0,0,0,0,0,0,0,0,0,0,0,0,0,0,0,0,0,0,0,0,0,0,0,0,0,0,0,0,0,0,0,0,0,0,0,0,0,0,0,0],"sum_hessian":[7.65802E2,6.169499E2,1.4885208E2,5.742576E2,4.269228E1,9.674253E0,1.3917783E2,5.1657605E2,5.7681587E1,3.8948588E0,3.8797424E1,6.4189076E0,3.2553456E0,7.3348656E1,6.582917E1,3.8810596E2,1.2847008E2,3.4867676E1,2.281391E1,2.338456E0,1.5564028E0,1.7045069E0,3.7092915E1,2.5327992E0,3.8861084E0,5.440615E1,1.8942509E1,5.7208897E1,8.620272E0,3.3561588E2,5.249008E1,1.25606926E2,2.863152E0,2.5274166E1,9.593512E0,3.7469466E0,1.9066963E1,1.2410189E0,1.2917805E0,5.1896286E1,2.5098631E0,6.4917574E0,1.245075E1,2.119322E0,6.50095E0],"tree_param":{"num_deleted":"0","num_feature":"671","num_nodes":"45","size_leaf_vector":"1"}},{"base_weights":[2.906453E-1,5.232864E-1,-9.710168E-1,7.494114E-1,-5.924521E-1,6.05313E-2,-9.944971E-1,-7.8447556E-1,8.0504644E-1,2.4261577E-1,-8.085846E-1,-6.6869426E-1,-1.0602089E0,1.5856531E-1,-1.5756027E-1,8.474734E-1,-1.0230944E0,5.3366226E-1,-4.7625124E-1,1.3530691E-1,-8.6427766E-1,7.548296E-2,-8.67768E-1,-1.0763326E0,1.6057862E-2,-8.675965E-2,6.840016E-2,3.6561552E-2,9.910097E-2,-1.1596527E-1,1.927114E-2,-9.714745E-2,7.100277E-2,-1.13382176E-1,7.068801E-2,-9.789796E-2,7.61154E-3,-8.384185E-2,6.581091E-2,-9.5072314E-2,2.3713233E-2,-1.0934277E-1,-4.7967248E-2],"categories":[],"categories_nodes":[],"categories_segments":[],"categories_sizes":[],"default_left":[0,0,0,0,0,0,0,0,0,0,0,0,0,0,0,0,0,0,0,0,0,0,0,0,0,0,0,0,0,0,0,0,0,0,0,0,0,0,0,0,0,0,0],"id":10,"left_children":[1,3,5,7,9,-1,11,13,15,17,19,21,23,25,-1,27,29,31,33,-1,35,37,39,41,-1,-1,-1,-1,-1,-1,-1,-1,-1,-1,-1,-1,-1,-1,-1,-1,-1,-1,-1],"loss_changes":[2.198198E2,1.597729E2,4.9205017E0,4.5479706E1,1.9504238E1,0E0,1.7604294E0,1.435109E1,4.024048E1,5.017048E0,1.1428268E1,3.3346596E0,2.0285187E0,5.732452E0,0E0,3.398929E1,2.2103214E0,5.1163898E0,6.3166137E0,0E0,9.101082E0,3.521452E0,1.8285179E0,4.2591095E-1,0E0,0E0,0E0,0E0,0E0,0E0,0E0,0E0,0E0,0E0,0E0,0E0,0E0,0E0,0E0,0E0,0E0,0E0,0E0],"parents":[2147483647,0,0,1,1,2,2,3,3,4,4,6,6,7,7,8,8,9,9,10,10,11,11,12,12,13,13,15,15,16,16,17,17,18,18,20,20,21,21,22,22,23,23],"right_children":[2,4,6,8,10,-1,12,14,16,18,20,22,24,26,-1,28,30,32,34,-1,36,38,40,42,-1,-1,-1,-1,-1,-1,-1,-1,-1,-1,-1,-1,-1,-1,-1,-1,-1,-1,-1],"split_conditions":[1.580788E6,6E0,1.968E3,1.3E1,2.080289E2,6.05313E-2,3.1261875E6,1.88009E2,6.819176E6,8E0,1.0347768E0,4.2436097E5,9E0,1.1844322E1,-1.5756027E-1,2.1307708E5,1.0117041E7,1.100023E0,1.7879876E0,1.3530691E-1,2.3366598E5,4.9667148E2,2E0,5.652107E7,1.6057862E-2,-8.675965E-2,6.840016E-2,3.6561552E-2,9.910097E-2,-1.1596527E-1,1.927114E-2,-9.714745E-2,7.100277E-2,-1.13382176E-1,7.068801E-2,-9.789796E-2,7.61154E-3,-8.384185E-2,6.581091E-2,-9.5072314E-2,2.3713233E-2,-1.0934277E-1,-4.7967248E-2],"split_indices":[141,19,144,0,159,0,141,159,2,19,139,142,19,159,0,2,2,139,139,0,144,159,54,141,0,0,0,0,0,0,0,0,0,0,0,0,0,0,0,0,0,0,0],"split_type":[0,0,0,0,0,0,0,0,0,0,0,0,0,0,0,0,0,0,0,0,0,0,0,0,0,0,0,0,0,0,0,0,0,0,0,0,0,0,0,0,0,0,0],"sum_hessian":[7.4619196E2,6.3051495E2,1.1567703E2,5.245363E2,1.05978615E2,1.3340931E0,1.1434294E2,1.7900835E1,5.0663547E2,2.176458E1,8.4214035E1,2.1067114E1,9.3275826E1,8.531122E0,9.369714E0,4.9566858E2,1.0966892E1,1.5675643E1,6.0889378E0,1.5301005E0,8.268394E1,4.577254E0,1.6489859E1,9.217673E1,1.0991014E0,2.668475E0,5.862647E0,1.1457669E2,3.810919E2,9.901006E0,1.0658872E0,1.1712928E0,1.4504351E1,3.94052E0,2.1484175E0,7.365859E1,9.02534E0,1.6110865E0,2.9661674E0,1.5468067E1,1.0217927E0,8.8799904E1,3.3768265E0],"tree_param":{"num_deleted":"0","num_feature":"671","num_nodes":"43","size_leaf_vector":"1"}},{"base_weights":[2.5557286E-1,7.317733E-1,-2.821931E-1,-1.0318849E-1,8.402921E-1,4.8414722E-2,-9.0747625E-1,3.1064203E-1,-4.9826416E-1,1.0201752E0,4.6780238E-1,-6.058069E-1,5.3633803E-1,-5.974304E-1,-1.0419196E0,-1.03417754E-1,5.319232E-1,-8.360789E-1,6.217111E-1,5.7612246E-1,1.1592791E0,-1.3362839E0,9.856104E-1,5.65355E-1,-7.724778E-1,6.693287E-1,-5.763253E-1,-1.0953076E0,-3.884399E-1,-1.0606678E0,1.6566511E-2,6.9240205E-2,-9.3398295E-2,1.13041595E-1,-1.172862E-1,1.2644906E-1,-1.890747E-2,9.423515E-2,-2.6443917E-2,-8.748577E-2,1.1773058E-1,-1.9950292E-1,-5.5193055E-2,1.05988346E-1,-9.054137E-2,-5.5476274E-2,7.817043E-2,-8.7975174E-2,9.718258E-2,3.9631866E-2,1.1171402E-1,-1.0837405E-1,5.1523214E-3,-1.2248867E-1,-3.9705215E-3,8.58081E-2,-5.430265E-2,-1.0805749E-1,-4.734722E-2],"categories":[],"categories_nodes":[],"categories_segments":[],"categories_sizes":[],"default_left":[0,0,0,0,0,0,0,0,0,0,0,0,0,0,0,0,0,0,0,0,0,0,0,0,0,0,0,0,0,0,0,0,0,0,0,0,0,0,0,0,0,0,0,0,0,0,0,0,0,0,0,0,0,0,0,0,0,0,0],"id":11,"left_children":[1,3,5,7,9,11,13,15,17,19,21,23,25,27,29,-1,31,33,35,37,39,41,43,45,47,49,51,53,55,57,-1,-1,-1,-1,-1,-1,-1,-1,-1,-1,-1,-1,-1,-1,-1,-1,-1,-1,-1,-1,-1,-1,-1,-1,-1,-1,-1,-1,-1],"loss_changes":[1.8421025E2,3.4640976E1,6.995203E1,7.4718137E0,2.2143661E1,7.12406E1,4.255005E0,7.2380366E0,9.327598E0,1.3342224E1,1.0574678E2,1.905402E1,1.9294422E1,3.5010672E0,1.9931564E0,0E0,5.3419957E0,1.345332E1,3.3494413E0,1.7516148E1,7.3268127E0,1.1999329E1,1.3239937E1,3.4530873E0,1.6557281E1,1.3568382E1,4.573305E0,1.4022999E0,5.886262E0,4.1399384E-1,0E0,0E0,0E0,0E0,0E0,0E0,0E0,0E0,0E0,0E0,0E0,0E0,0E0,0E0,0E0,0E0,0E0,0E0,0E0,0E0,0E0,0E0,0E0,0E0,0E0,0E0,0E0,0E0,0E0],"parents":[2147483647,0,0,1,1,2,2,3,3,4,4,5,5,6,6,7,7,8,8,9,9,10,10,11,11,12,12,13,13,14,14,16,16,17,17,18,18,19,19,20,20,21,21,22,22,23,23,24,24,25,25,26,26,27,27,28,28,29,29],"right_children":[2,4,6,8,10,12,14,16,18,20,22,24,26,28,30,-1,32,34,36,38,40,42,44,46,48,50,52,54,56,58,-1,-1,-1,-1,-1,-1,-1,-1,-1,-1,-1,-1,-1,-1,-1,-1,-1,-1,-1,-1,-1,-1,-1,-1,-1,-1,-1,-1,-1],"split_conditions":[2.0602504E4,1.2384843E5,1.01069344E6,1.04018E2,1.3334213E7,2.7627142E6,3.1261875E6,3.000122E0,3.1138227E4,4.4136428E5,1.887625E7,6.900264E1,2.0927812E3,8.231805E6,9E0,-1.03417754E-1,1.11690625E5,5.991003E3,8.056306E4,8.291371E3,1.1E1,9.752948E-2,2.4378156E7,2E0,2E0,6.95889E7,2.581533E6,6.7435656E5,9.255977E6,5.652107E7,1.6566511E-2,6.9240205E-2,-9.3398295E-2,1.13041595E-1,-1.172862E-1,1.2644906E-1,-1.890747E-2,9.423515E-2,-2.6443917E-2,-8.748577E-2,1.1773058E-1,-1.9950292E-1,-5.5193055E-2,1.05988346E-1,-9.054137E-2,-5.5476274E-2,7.817043E-2,-8.7975174E-2,9.718258E-2,3.9631866E-2,1.1171402E-1,-1.0837405E-1,5.1523214E-3,-1.2248867E-1,-3.9705215E-3,8.58081E-2,-5.430265E-2,-1.0805749E-1,-4.734722E-2],"split_indices":[144,3,141,159,5,5,141,159,142,3,3,159,159,5,19,0,3,141,141,144,0,139,3,27,56,5,3,143,5,141,0,0,0,0,0,0,0,0,0,0,0,0,0,0,0,0,0,0,0,0,0,0,0,0,0,0,0,0,0],"split_type":[0,0,0,0,0,0,0,0,0,0,0,0,0,0,0,0,0,0,0,0,0,0,0,0,0,0,0,0,0,0,0,0,0,0,0,0,0,0,0,0,0,0,0,0,0,0,0,0,0,0,0,0,0,0,0,0,0,0,0],"sum_hessian":[7.1752783E2,3.803558E2,3.37172E2,4.375403E1,3.3660178E2,2.2116E2,1.16012E2,2.1474165E1,2.2279861E1,2.2581305E2,1.1078873E2,9.4376144E1,1.2678385E2,3.6736343E1,7.927566E1,2.51512E0,1.8959045E1,1.7311678E1,4.968184E0,5.509102E1,1.7072203E2,2.4354605E1,8.643412E1,1.1459637E1,8.291651E1,1.13603836E2,1.3180016E1,9.607496E0,2.7128847E1,7.8183495E1,1.0921645E0,1.7563913E1,1.3951325E0,2.18673E0,1.51249485E1,2.4590762E0,2.5091076E0,3.8288006E1,1.6803015E1,1.0821357E0,1.696399E2,1.2398281E1,1.1956324E1,8.359049E1,2.8436313E0,1.601888E0,9.857749E0,7.8579544E1,4.336964E0,7.174762E1,4.1856216E1,6.887529E0,6.2924867E0,8.414249E0,1.1932467E0,2.491074E0,2.4637774E1,7.480714E1,3.376353E0],"tree_param":{"num_deleted":"0","num_feature":"671","num_nodes":"59","size_leaf_vector":"1"}},{"base_weights":[2.540475E-1,4.5915315E-1,-9.1026455E-1,6.291711E-1,-6.5371025E-1,9.5107615E-2,-9.5139325E-1,1.3154027E-1,8.0994356E-1,-9.253419E-1,4.8148036E-2,-3.3869382E-2,-9.8389214E-1,2.6330677E-1,-6.7122203E-1,8.500107E-1,-7.878186E-1,-9.8010004E-1,9.6416555E-2,2.7280676E-1,-9.811703E-2,5.197224E-1,-7.2620384E-2,-1.8853398E-1,-1.0060297E0,4.621829E-2,-1.1990769E-2,-8.247059E-2,1.0482949E-1,9.1585234E-2,1.0850909E-2,8.073641E-3,-9.894223E-2,-1.0242664E-1,3.2308465E-4,-1.6226742E-2,1.2685312E-1,-1.2426138E-3,7.868395E-2,-6.8863176E-2,2.6970541E-2,-1.02024615E-1,-4.444526E-3],"categories":[],"categories_nodes":[],"categories_segments":[],"categories_sizes":[],"default_left":[0,0,0,0,0,0,0,0,0,0,0,0,0,0,0,0,0,0,0,0,0,0,0,0,0,0,0,0,0,0,0,0,0,0,0,0,0,0,0,0,0,0,0],"id":12,"left_children":[1,3,5,7,9,-1,11,13,15,17,19,21,23,25,27,29,31,33,-1,35,-1,37,-1,39,41,-1,-1,-1,-1,-1,-1,-1,-1,-1,-1,-1,-1,-1,-1,-1,-1,-1,-1],"loss_changes":[1.6572159E2,1.1189096E2,8.867355E0,4.591771E1,1.5024712E1,0E0,3.0159988E0,1.4723632E1,2.468245E1,6.8114967E0,5.557484E0,2.1151364E0,1.5486679E0,9.113366E0,6.0564175E0,1.778891E1,1.7775426E0,2.4179802E0,0E0,8.679293E0,0E0,4.5075035E-1,0E0,1.0804234E0,1.2645874E0,0E0,0E0,0E0,0E0,0E0,0E0,0E0,0E0,0E0,0E0,0E0,0E0,0E0,0E0,0E0,0E0,0E0,0E0],"parents":[2147483647,0,0,1,1,2,2,3,3,4,4,6,6,7,7,8,8,9,9,10,10,11,11,12,12,13,13,14,14,15,15,16,16,17,17,19,19,21,21,23,23,24,24],"right_children":[2,4,6,8,10,-1,12,14,16,18,20,22,24,26,28,30,32,34,-1,36,-1,38,-1,40,42,-1,-1,-1,-1,-1,-1,-1,-1,-1,-1,-1,-1,-1,-1,-1,-1,-1,-1],"split_conditions":[1.580788E6,1.0822584E3,1.992E3,3.9829572E5,6.327509E6,9.5107615E-2,7.262846E5,8E0,7.467728E7,4E0,6.819176E6,9.722667E4,1.7928142E6,8.295199E5,1.0947671E6,9.043309E5,3.1080784E1,2.66075E5,9.6416555E-2,5.713545E6,-9.811703E-2,3E0,-7.2620384E-2,2.463135E-1,9E0,4.621829E-2,-1.1990769E-2,-8.247059E-2,1.0482949E-1,9.1585234E-2,1.0850909E-2,8.073641E-3,-9.894223E-2,-1.0242664E-1,3.2308465E-4,-1.6226742E-2,1.2685312E-1,-1.2426138E-3,7.868395E-2,-6.8863176E-2,2.6970541E-2,-1.02024615E-1,-4.444526E-3],"split_indices":[141,160,144,3,138,0,2,19,4,45,2,144,141,4,4,141,160,144,0,2,0,23,0,139,19,0,0,0,0,0,0,0,0,0,0,0,0,0,0,0,0,0,0],"split_type":[0,0,0,0,0,0,0,0,0,0,0,0,0,0,0,0,0,0,0,0,0,0,0,0,0,0,0,0,0,0,0,0,0,0,0,0,0,0,0,0,0,0,0],"sum_hessian":[6.9120605E2,5.8819507E2,1.0301102E2,5.106197E2,7.7575386E1,1.7486514E0,1.0126237E2,1.3652396E2,3.7409573E2,5.5700054E1,2.1875332E1,3.5339036E0,9.772846E1,1.1785163E2,1.8672327E1,3.6540057E2,8.695162E0,5.459906E1,1.100993E0,1.8559504E1,3.3158283E0,2.1022553E0,1.4316483E0,2.9041636E0,9.4824295E1,7.7450966E1,4.0400665E1,1.7619957E1,1.05237E0,3.3538492E2,3.0015636E1,1.750996E0,6.9441657E0,5.2212315E1,2.3867462E0,1.3498482E1,5.0610223E0,1.0212364E0,1.0810189E0,1.1482493E0,1.7559143E0,9.338269E1,1.4416077E0],"tree_param":{"num_deleted":"0","num_feature":"671","num_nodes":"43","size_leaf_vector":"1"}},{"base_weights":[2.1633452E-1,4.309002E-1,-7.334679E-1,5.2041614E-1,-1.0560132E0,1.20806515E-1,-8.110486E-1,6.793552E-1,-7.0072025E-2,1.191233E-2,-1.1089585E-1,8.246057E-1,-9.589877E-2,-5.5605865E-1,-9.7601324E-1,5.30573E-1,1.0655988E0,-8.9880514E-1,8.907369E-2,4.6657838E-2,1.162157E-1,-6.4692134E-1,4.6096244E-1,-1.0154214E0,-5.1405203E-1,8.113118E-2,-1.17815234E-1,1.0985505E-1,3.0763239E-2,-4.2115985E-3,-1.19401135E-1,5.1259495E-2,-2.8173802E-2,3.0860443E-2,-2.1294855E-2,2.8006972E-3,-8.062928E-2,8.494789E-2,-1.2905617E-2,-7.697984E-2,-1.113292E-1,3.6065616E-2,-9.123184E-2],"categories":[],"categories_nodes":[],"categories_segments":[],"categories_sizes":[],"default_left":[0,0,0,0,0,0,0,0,0,0,0,0,0,0,0,0,0,0,0,0,0,0,0,0,0,0,0,0,0,0,0,0,0,0,0,0,0,0,0,0,0,0,0],"id":13,"left_children":[1,3,5,7,9,11,13,15,17,-1,-1,19,-1,21,23,25,27,29,31,33,-1,35,37,39,41,-1,-1,-1,-1,-1,-1,-1,-1,-1,-1,-1,-1,-1,-1,-1,-1,-1,-1],"loss_changes":[1.3533267E2,7.2565506E1,8.21376E0,4.800609E1,2.0641823E0,9.19994E0,4.1848984E0,2.257753E1,1.4492982E1,0E0,0E0,1.846097E0,0E0,4.5927134E0,6.962509E-1,1.4137695E2,2.4344025E0,4.424794E0,1.4684634E1,2.8547814E-1,0E0,4.656164E0,1.1171885E0,6.005478E-1,2.8669114E0,0E0,0E0,0E0,0E0,0E0,0E0,0E0,0E0,0E0,0E0,0E0,0E0,0E0,0E0,0E0,0E0,0E0,0E0],"parents":[2147483647,0,0,1,1,2,2,3,3,4,4,5,5,6,6,7,7,8,8,11,11,13,13,14,14,15,15,16,16,17,17,18,18,19,19,21,21,22,22,23,23,24,24],"right_children":[2,4,6,8,10,12,14,16,18,-1,-1,20,-1,22,24,26,28,30,32,34,-1,36,38,40,42,-1,-1,-1,-1,-1,-1,-1,-1,-1,-1,-1,-1,-1,-1,-1,-1,-1,-1],"split_conditions":[1.0126524E3,9.735203E7,1.7779474E-1,1.0347768E0,2.0597396E-2,6.819176E6,2.453E3,6.855139E7,3E0,1.191233E-2,-1.1089585E-1,1.9487354E7,-9.589877E-2,3E0,3.601733E4,1.3973877E7,7.499366E7,9.800062E1,1.3298728E0,1.7271497E3,1.162157E-1,6.7216814E-1,2.3547583E5,2E0,1.0111147E6,8.113118E-2,-1.17815234E-1,1.0985505E-1,3.0763239E-2,-4.2115985E-3,-1.19401135E-1,5.1259495E-2,-2.8173802E-2,3.0860443E-2,-2.1294855E-2,2.8006972E-3,-8.062928E-2,8.494789E-2,-1.2905617E-2,-7.697984E-2,-1.113292E-1,3.6065616E-2,-9.123184E-2],"split_indices":[159,5,139,139,139,2,159,4,23,0,0,3,0,42,159,4,5,159,139,159,0,139,143,27,143,0,0,0,0,0,0,0,0,0,0,0,0,0,0,0,0,0,0],"split_type":[0,0,0,0,0,0,0,0,0,0,0,0,0,0,0,0,0,0,0,0,0,0,0,0,0,0,0,0,0,0,0,0,0,0,0,0,0,0,0,0,0,0,0],"sum_hessian":[6.61512E2,5.400566E2,1.21455475E2,5.1000308E2,3.0053463E1,1.0065283E1,1.1139019E2,4.017227E2,1.0828042E2,1.2417818E0,2.8811682E1,6.2366357E0,3.8286467E0,4.5472687E1,6.59175E1,2.9172357E2,1.0999911E2,1.6695068E1,9.158535E1,2.2316408E0,4.004995E0,4.2077324E1,3.395365E0,5.963243E1,6.285076E0,2.5100874E2,4.0714836E1,1.0498564E2,5.01346E0,4.57143E0,1.2123638E1,4.2575516E1,4.9009834E1,1.0168674E0,1.2147735E0,8.195242E0,3.388208E1,1.7821214E0,1.6132435E0,1.9516905E1,4.0115524E1,1.9959114E0,4.2891645E0],"tree_param":{"num_deleted":"0","num_feature":"671","num_nodes":"43","size_leaf_vector":"1"}},{"base_weights":[2.0647438E-1,4.9240154E-1,-4.477855E-1,3.7219967E-3,6.789893E-1,-1.4785129E-1,-9.9619085E-1,4.4765761E-1,-2.5369865E-1,7.9738444E-1,-1.0710586E-1,2.7376127E-1,-6.293183E-1,-1.0170579E0,2.8135723E-3,-3.5125747E-2,9.1917473E-1,-4.3229255E-1,6.9993246E-1,8.2307184E-1,-9.362318E-2,5.401074E-1,-5.028911E-1,5.037839E-1,-3.664258E-1,-9.318441E-1,-4.337831E-2,-1.340788E-2,-1.0380005E0,-3.1915944E-2,9.768753E-2,-2.0296717E-2,1.018489E-1,2.333272E-3,-7.574152E-2,6.6513307E-3,1.4629345E-1,-4.0404316E-2,8.543251E-2,-1.0162716E-1,8.3225004E-2,5.263526E-2,-7.0209E-2,-1.0604234E-1,6.6010565E-2,-1.2798278E-1,4.1494507E-2,9.271584E-2,-1.0593561E-1,7.0138715E-2,-4.1422997E-2,-1.0637324E-1,-2.3796929E-2],"categories":[],"categories_nodes":[],"categories_segments":[],"categories_sizes":[],"default_left":[0,0,0,0,0,0,0,0,0,0,0,0,0,0,0,0,0,0,0,0,0,0,0,0,0,0,0,0,0,0,0,0,0,0,0,0,0,0,0,0,0,0,0,0,0,0,0,0,0,0,0,0,0],"id":14,"left_children":[1,3,5,7,9,11,13,15,17,19,21,23,25,27,-1,29,31,33,35,37,-1,39,41,43,45,47,49,-1,51,-1,-1,-1,-1,-1,-1,-1,-1,-1,-1,-1,-1,-1,-1,-1,-1,-1,-1,-1,-1,-1,-1,-1,-1],"loss_changes":[1.199095E2,4.0637726E1,3.1943825E1,1.4302549E1,3.0104584E1,2.6012371E1,1.4992752E0,1.0488534E1,1.3796212E1,1.3259293E1,1.1312448E1,1.0281046E1,1.0547892E1,1.1082458E0,0E0,7.112269E0,2.800539E0,9.994432E0,6.127166E0,1.0963913E1,0E0,8.501736E0,5.9592886E0,1.3136497E1,1.3878954E1,1.0308636E1,6.197842E0,0E0,1.1003342E0,0E0,0E0,0E0,0E0,0E0,0E0,0E0,0E0,0E0,0E0,0E0,0E0,0E0,0E0,0E0,0E0,0E0,0E0,0E0,0E0,0E0,0E0,0E0,0E0],"parents":[2147483647,0,0,1,1,2,2,3,3,4,4,5,5,6,6,7,7,8,8,9,9,10,10,11,11,12,12,13,13,15,15,16,16,17,17,18,18,19,19,21,21,22,22,23,23,24,24,25,25,26,26,28,28],"right_children":[2,4,6,8,10,12,14,16,18,20,22,24,26,28,-1,30,32,34,36,38,-1,40,42,44,46,48,50,-1,52,-1,-1,-1,-1,-1,-1,-1,-1,-1,-1,-1,-1,-1,-1,-1,-1,-1,-1,-1,-1,-1,-1,-1,-1],"split_conditions":[5.3711082E4,1.6682444E5,1.7217608E6,3.035006E3,9.043309E5,6E0,9E0,4.6664547E5,1.94922E5,6.819176E6,1.0170843E6,8.711375E5,2.3154119E5,3.3686415E6,2.8135723E-3,2E0,4.9999757E0,2.3464487E2,3E0,1.3E1,-9.362318E-2,9.6450075E5,2.745107E3,2.205176E5,2.7203666E5,6.4471004E4,5.140015E2,-1.340788E-2,5.652107E7,-3.1915944E-2,9.768753E-2,-2.0296717E-2,1.018489E-1,2.333272E-3,-7.574152E-2,6.6513307E-3,1.4629345E-1,-4.0404316E-2,8.543251E-2,-1.0162716E-1,8.3225004E-2,5.263526E-2,-7.0209E-2,-1.0604234E-1,6.6010565E-2,-1.2798278E-1,4.1494507E-2,9.271584E-2,-1.0593561E-1,7.0138715E-2,-4.1422997E-2,-1.0637324E-1,-2.3796929E-2],"split_indices":[144,2,141,144,141,19,19,4,142,2,2,141,143,4,0,46,159,159,35,0,0,141,144,141,143,2,159,0,141,0,0,0,0,0,0,0,0,0,0,0,0,0,0,0,0,0,0,0,0,0,0,0,0],"split_type":[0,0,0,0,0,0,0,0,0,0,0,0,0,0,0,0,0,0,0,0,0,0,0,0,0,0,0,0,0,0,0,0,0,0,0,0,0,0,0,0,0,0,0,0,0,0,0,0,0,0,0,0,0],"sum_hessian":[6.388064E2,4.4470648E2,1.9409995E2,1.23161736E2,3.2154474E2,1.2629577E2,6.780417E1,4.4933136E1,7.82286E1,2.79443E2,4.2101738E1,6.756321E1,5.8732563E1,6.645743E1,1.3467394E0,2.2658623E1,2.2274515E1,6.63495E1,1.1879099E1,2.7588043E2,3.5625553E0,1.5837918E1,2.626382E1,4.9860966E1,1.7702242E1,3.8344585E1,2.0387978E1,1.7112248E0,6.47462E1,1.8227436E1,4.4311857E0,1.7262378E0,2.0548277E1,2.8016108E1,3.8333393E1,7.0847473E0,4.7943516E0,6.555606E0,2.6932483E2,2.11131E0,1.3726608E1,3.9925103E0,2.227131E1,4.004729E0,4.585624E1,7.8674617E0,9.834781E0,2.0587559E0,3.6285828E1,6.481058E0,1.3906919E1,6.2409283E1,2.3369193E0],"tree_param":{"num_deleted":"0","num_feature":"671","num_nodes":"53","size_leaf_vector":"1"}},{"base_weights":[2.126611E-1,4.0890998E-1,-6.9026786E-1,5.737527E-1,-4.1405863E-1,9.542059E-2,-8.4657663E-1,-6.5951735E-1,6.118404E-1,2.680592E-1,-6.604412E-1,-6.005026E-1,6.17767E-1,-5.3172666E-1,-9.9146265E-1,8.5957706E-2,-1.5333174E-1,6.407891E-1,-8.752927E-1,-9.666938E-2,1.2616526E0,1.431703E-1,-7.3155534E-1,-1.0361915E0,4.0037658E-2,8.67046E-1,-6.755733E-2,5.538183E-1,-8.039028E-1,-3.3437476E-2,-1.0054942E-1,-9.308418E-2,5.089692E-2,5.0087262E-2,1.13859676E-1,-1.05773844E-1,2.05584E-2,1.8993316E-2,-1.0908107E-1,1.4569801E-1,2.77319E-2,-9.7512625E-2,-8.288269E-4,-1.19198196E-1,-2.0123683E-2,6.224788E-2,-4.9333375E-2,1.0573287E-1,-2.9288491E-2,1.2285929E-1,-4.2777985E-2,-1.1574556E-1,-5.6333463E-3],"categories":[],"categories_nodes":[],"categories_segments":[],"categories_sizes":[],"default_left":[0,0,0,0,0,0,0,0,0,0,0,0,0,0,0,0,0,0,0,0,0,0,0,0,0,0,0,0,0,0,0,0,0,0,0,0,0,0,0,0,0,0,0,0,0,0,0,0,0,0,0,0,0],"id":15,"left_children":[1,3,5,7,9,11,13,15,17,19,21,23,25,27,29,31,-1,33,35,37,39,-1,41,43,45,47,-1,49,51,-1,-1,-1,-1,-1,-1,-1,-1,-1,-1,-1,-1,-1,-1,-1,-1,-1,-1,-1,-1,-1,-1,-1,-1],"loss_changes":[1.1031741E2,6.95233E1,1.3742279E1,2.0409988E1,1.4598375E1,7.407598E0,3.7099228E0,8.756983E0,1.836995E1,8.631415E0,1.0469423E1,2.499238E0,4.3096814E0,9.731188E0,2.3962402E-1,3.9543345E0,0E0,2.7733093E1,1.8584862E0,5.3657513E0,8.218956E-1,0E0,1.0898109E1,4.4677353E-1,1.7137536E0,2.5437474E0,0E0,5.090872E0,6.684202E0,0E0,0E0,0E0,0E0,0E0,0E0,0E0,0E0,0E0,0E0,0E0,0E0,0E0,0E0,0E0,0E0,0E0,0E0,0E0,0E0,0E0,0E0,0E0,0E0],"parents":[2147483647,0,0,1,1,2,2,3,3,4,4,5,5,6,6,7,7,8,8,9,9,10,10,11,11,12,12,13,13,14,14,15,15,17,17,18,18,19,19,20,20,22,22,23,23,24,24,25,25,27,27,28,28],"right_children":[2,4,6,8,10,12,14,16,18,20,22,24,26,28,30,32,-1,34,36,38,40,-1,42,44,46,48,-1,50,52,-1,-1,-1,-1,-1,-1,-1,-1,-1,-1,-1,-1,-1,-1,-1,-1,-1,-1,-1,-1,-1,-1,-1,-1],"split_conditions":[1.01069344E6,6E0,1.9656525E4,1.3E1,2.2400049E2,5.3935933E-1,2.0937452E6,1.88009E2,6.819176E6,3.2583356E5,1.0347768E0,6.396458E3,1.3843066E7,7.913073E-1,4.298578E4,8.381192E0,-1.5333174E-1,5.850394E6,1.0117041E7,7.058425E5,1.4621594E0,1.431703E-1,2.122123E5,1.4213022E2,1.0091166E4,1.2739519E6,-6.755733E-2,7.7843475E2,6.45806E5,-3.3437476E-2,-1.0054942E-1,-9.308418E-2,5.089692E-2,5.0087262E-2,1.13859676E-1,-1.05773844E-1,2.05584E-2,1.8993316E-2,-1.0908107E-1,1.4569801E-1,2.77319E-2,-9.7512625E-2,-8.288269E-4,-1.19198196E-1,-2.0123683E-2,6.224788E-2,-4.9333375E-2,1.0573287E-1,-2.9288491E-2,1.2285929E-1,-4.2777985E-2,-1.1574556E-1,-5.6333463E-3],"split_indices":[141,19,144,0,160,139,2,160,2,3,139,144,141,139,143,160,0,2,2,4,139,0,143,160,144,142,0,160,143,0,0,0,0,0,0,0,0,0,0,0,0,0,0,0,0,0,0,0,0,0,0,0,0],"split_type":[0,0,0,0,0,0,0,0,0,0,0,0,0,0,0,0,0,0,0,0,0,0,0,0,0,0,0,0,0,0,0,0,0,0,0,0,0,0,0,0,0,0,0,0,0,0,0,0,0,0,0,0,0],"sum_hessian":[6.199702E2,5.0972922E2,1.1024097E2,4.2491956E2,8.480966E1,1.8357292E1,9.1883675E1,1.224107E1,4.126785E2,2.2481356E1,6.232831E1,7.806737E0,1.0550556E1,3.0428925E1,6.145475E1,7.092118E0,5.1489525E0,4.053569E2,7.321607E0,1.7105112E1,5.3762426E0,1.420004E0,6.0908302E1,4.278715E0,3.5280218E0,9.121987E0,1.4285688E0,5.892509E0,2.4536415E1,1.8040252E0,5.9650723E1,1.7309333E0,5.361184E0,3.179877E2,8.736918E1,6.2825556E0,1.0390519E0,1.3905285E1,3.1998286E0,4.085385E0,1.2908576E0,4.5303463E1,1.5604839E1,3.245543E0,1.0331721E0,1.6065768E0,1.921445E0,7.912435E0,1.2095523E0,3.342896E0,2.5496132E0,1.628592E1,8.250496E0],"tree_param":{"num_deleted":"0","num_feature":"671","num_nodes":"53","size_leaf_vector":"1"}},{"base_weights":[1.8327847E-1,5.461671E-1,-2.3851615E-1,-1.8591028E-1,6.613228E-1,-1.1677806E-2,-9.488243E-1,2.1403119E-1,-6.7439926E-1,8.459999E-1,3.1699184E-1,-2.0544189E-1,7.7425617E-1,-9.686343E-1,-1.0266992E-2,-1.015996E-1,3.8544726E-1,-3.2394987E-1,-1.1828514E0,5.074518E-1,1.0522277E0,-7.3239475E-1,8.0816287E-1,-7.702099E-2,-1.5017384E0,1.2409858E0,-9.5239264E-1,-7.36224E-3,-9.9047655E-1,7.333886E-2,-2.0322993E-2,1.15417495E-1,-5.931287E-2,-4.81625E-2,-1.3480833E-1,7.840151E-2,-1.3066983E-3,-4.847582E-3,1.0708507E-1,-1.6409574E-2,-1.969754E-1,9.709563E-2,-3.9205174E-3,-3.452259E-2,7.519453E-2,-1.8907039E-1,6.050883E-2,2.957108E-2,1.2720682E-1,-2.0287896E-4,-1.0757821E-1,-1.0164483E-1,-1.907082E-2],"categories":[],"categories_nodes":[],"categories_segments":[],"categories_sizes":[],"default_left":[0,0,0,0,0,0,0,0,0,0,0,0,0,0,0,0,0,0,0,0,0,0,0,0,0,0,0,0,0,0,0,0,0,0,0,0,0,0,0,0,0,0,0,0,0,0,0,0,0,0,0,0,0],"id":16,"left_children":[1,3,5,7,9,11,13,15,17,19,21,23,25,27,-1,-1,29,31,33,35,37,39,41,43,45,47,49,-1,51,-1,-1,-1,-1,-1,-1,-1,-1,-1,-1,-1,-1,-1,-1,-1,-1,-1,-1,-1,-1,-1,-1,-1,-1],"loss_changes":[9.009215E1,2.6782394E1,4.3896255E1,8.694191E0,1.7121864E1,3.1767E1,1.0059929E0,5.6251307E0,3.1701355E0,1.1851944E1,5.0623554E1,2.7734459E1,3.4432556E1,1.1844864E0,0E0,0E0,4.7597446E0,5.9294877E0,2.4977016E-1,9.95594E0,2.292694E0,2.1807922E1,9.224667E0,3.4336742E1,1.3457336E1,5.9090805E-1,1.0937214E0,0E0,1.1086807E0,0E0,0E0,0E0,0E0,0E0,0E0,0E0,0E0,0E0,0E0,0E0,0E0,0E0,0E0,0E0,0E0,0E0,0E0,0E0,0E0,0E0,0E0,0E0,0E0],"parents":[2147483647,0,0,1,1,2,2,3,3,4,4,5,5,6,6,7,7,8,8,9,9,10,10,11,11,12,12,13,13,16,16,17,17,18,18,19,19,20,20,21,21,22,22,23,23,24,24,25,25,26,26,28,28],"right_children":[2,4,6,8,10,12,14,16,18,20,22,24,26,28,-1,-1,30,32,34,36,38,40,42,44,46,48,50,-1,52,-1,-1,-1,-1,-1,-1,-1,-1,-1,-1,-1,-1,-1,-1,-1,-1,-1,-1,-1,-1,-1,-1,-1,-1],"split_conditions":[2.0602504E4,5.6123504E4,1.7217608E6,3.035006E3,9.912721E5,5.788944E6,9E0,3.000122E0,3.2553303E4,3.121599E6,1.887625E7,3.083608E6,2.103767E7,3.3686415E6,-1.0266992E-2,-1.015996E-1,2.8927047E4,2E0,2.147974E2,8.291371E3,1.3E1,1.6449592E7,7.265694E7,5.433177E5,1.2073579E6,3.29365E4,6.819176E6,-7.36224E-3,5.652107E7,7.333886E-2,-2.0322993E-2,1.15417495E-1,-5.931287E-2,-4.81625E-2,-1.3480833E-1,7.840151E-2,-1.3066983E-3,-4.847582E-3,1.0708507E-1,-1.6409574E-2,-1.969754E-1,9.709563E-2,-3.9205174E-3,-3.452259E-2,7.519453E-2,-1.8907039E-1,6.050883E-2,2.957108E-2,1.2720682E-1,-2.0287896E-4,-1.0757821E-1,-1.0164483E-1,-1.907082E-2],"split_indices":[144,2,141,144,2,2,19,159,2,4,3,3,3,4,0,0,2,22,159,144,0,3,5,2,141,143,2,0,141,0,0,0,0,0,0,0,0,0,0,0,0,0,0,0,0,0,0,0,0,0,0,0,0],"split_type":[0,0,0,0,0,0,0,0,0,0,0,0,0,0,0,0,0,0,0,0,0,0,0,0,0,0,0,0,0,0,0,0,0,0,0,0,0,0,0,0,0,0,0,0,0,0,0,0,0,0,0,0,0],"sum_hessian":[5.867385E2,3.1523395E2,2.7150458E2,4.2763012E1,2.7247092E2,2.0655672E2,6.494787E1,2.3821468E1,1.8941544E1,1.7640279E2,9.606813E1,1.6629657E2,4.0260143E1,6.3320667E1,1.6272035E0,2.3110483E0,2.151042E1,1.2182153E1,6.7593904E0,6.808825E1,1.08314545E2,3.0472511E1,6.559562E1,1.5227089E2,1.4025686E1,3.1914597E1,8.345545E0,1.612611E0,6.1708054E1,1.3365082E1,8.145338E0,1.3702149E0,1.0811937E1,2.0355554E0,4.723835E0,4.4133114E1,2.3955133E1,1.7754394E0,1.0653911E2,2.1657972E1,8.814538E0,5.4902157E1,1.0693464E1,1.15488976E2,3.6781918E1,1.1926399E1,2.0992873E0,1.3507087E0,3.0563889E1,1.0758245E0,7.26972E0,5.9504765E1,2.2032914E0],"tree_param":{"num_deleted":"0","num_feature":"671","num_nodes":"53","size_leaf_vector":"1"}},{"base_weights":[1.7578799E-1,3.5508713E-1,-6.407289E-1,4.855916E-1,-3.6243904E-1,-4.0043652E-1,-9.800348E-1,5.8356516E-2,6.908795E-1,-1.315186E-1,-1.02980115E-1,-5.067823E-1,8.86543E-1,1.0060164E-2,-1.00973725E-1,1.5221581E-1,-7.4571717E-1,9.2138857E-1,3.901785E-1,-3.4179878E-1,9.19337E-1,-9.919241E-2,-7.8654504E-1,1.5074253E-1,6.446315E-2,-1.04271226E-1,2.0224094E-2,-3.0315518E-2,-1.03941E-1,-3.7814695E-2,9.590956E-2,-1.0401618E-1,8.542576E-2,1.6207846E-2,-6.9176726E-2,1.4057867E-1,-1.0089477E-2,1.664219E-2,-7.668463E-2,-9.8433025E-2,-1.2616693E-2,-6.591774E-2,7.367783E-2],"categories":[],"categories_nodes":[],"categories_segments":[],"categories_sizes":[],"default_left":[0,0,0,0,0,0,0,0,0,0,0,0,0,0,0,0,0,0,0,0,0,0,0,0,0,0,0,0,0,0,0,0,0,0,0,0,0,0,0,0,0,0,0],"id":17,"left_children":[1,3,5,7,9,11,13,15,17,19,-1,21,23,-1,-1,25,27,29,31,33,35,37,39,-1,41,-1,-1,-1,-1,-1,-1,-1,-1,-1,-1,-1,-1,-1,-1,-1,-1,-1,-1],"loss_changes":[8.333478E1,4.3822033E1,7.970112E0,3.4586174E1,1.10068035E1,8.898656E0,1.4442787E0,9.866208E0,1.811792E1,1.2437226E1,0E0,6.4968033E0,2.4935215E0,0E0,0E0,7.1777735E0,1.4626398E0,7.72097E0,7.8824066E1,8.301937E0,4.8161974E0,4.492377E0,4.3227787E0,0E0,2.0564516E0,0E0,0E0,0E0,0E0,0E0,0E0,0E0,0E0,0E0,0E0,0E0,0E0,0E0,0E0,0E0,0E0,0E0,0E0],"parents":[2147483647,0,0,1,1,2,2,3,3,4,4,5,5,6,6,7,7,8,8,9,9,11,11,12,12,15,15,16,16,17,17,18,18,19,19,20,20,21,21,22,22,24,24],"right_children":[2,4,6,8,10,12,14,16,18,20,-1,22,24,-1,-1,26,28,30,32,34,36,38,40,-1,42,-1,-1,-1,-1,-1,-1,-1,-1,-1,-1,-1,-1,-1,-1,-1,-1,-1,-1],"split_conditions":[1.0126524E3,9.043309E5,4.1758105E3,2.498109E6,8.125272E6,3E0,7.485371E-2,8E0,3.083608E6,6.510286E2,-1.02980115E-1,2E0,1.441268E5,1.0060164E-2,-1.00973725E-1,1.3E1,9.5950055E4,1.3E1,5.713545E6,1.5507424E4,2E0,1.01069344E6,2.3366598E5,1.5074253E-1,9.7449906E5,-1.04271226E-1,2.0224094E-2,-3.0315518E-2,-1.03941E-1,-3.7814695E-2,9.590956E-2,-1.0401618E-1,8.542576E-2,1.6207846E-2,-6.9176726E-2,1.4057867E-1,-1.0089477E-2,1.664219E-2,-7.668463E-2,-9.8433025E-2,-1.2616693E-2,-6.591774E-2,7.367783E-2],"split_indices":[159,141,159,5,2,44,139,19,3,159,0,25,2,0,0,0,2,0,2,144,31,141,144,0,4,0,0,0,0,0,0,0,0,0,0,0,0,0,0,0,0,0,0],"split_type":[0,0,0,0,0,0,0,0,0,0,0,0,0,0,0,0,0,0,0,0,0,0,0,0,0,0,0,0,0,0,0,0,0,0,0,0,0,0,0,0,0,0,0],"sum_hessian":[5.6666956E2,4.651027E2,1.015669E2,3.9380096E2,7.130172E1,6.0735157E1,4.083174E1,1.2822652E2,2.6557443E2,5.3861614E1,1.7440107E1,5.665949E1,4.075666E0,1.0284272E0,3.9803314E1,1.15549194E2,1.2677331E1,1.4916475E2,1.1640969E2,4.5443035E1,8.418581E0,2.3612581E1,3.304691E1,1.8470181E0,2.228648E0,3.8456674E0,1.1170352E2,5.867655E0,6.809676E0,3.9514935E0,1.4521326E2,2.8212984E1,8.81967E1,1.884593E1,2.6597103E1,5.4446473E0,2.973934E0,1.7429356E1,6.183225E0,2.5052927E1,7.993981E0,1.0827646E0,1.1458832E0],"tree_param":{"num_deleted":"0","num_feature":"671","num_nodes":"43","size_leaf_vector":"1"}},{"base_weights":[1.4104466E-1,2.9984128E-1,-6.363169E-1,3.626137E-1,-9.77092E-1,3.555938E-1,-7.335887E-1,-3.8247075E-2,5.329886E-1,2.399156E-2,-1.0498241E-1,9.173357E-1,-8.334674E-2,-8.112831E-1,1.7459263E-1,1.8336242E-1,-3.6730883E-1,6.684915E-1,-4.687056E-2,2.4691848E-2,1.1360166E-1,-8.296133E-1,1.3103272E-2,7.882157E-1,-8.131256E-2,6.4853714E-3,1.0223734E-1,3.139739E-2,-7.121552E-2,8.708249E-2,4.209607E-2,-2.7320448E-2,9.854128E-2,-6.5325856E-2,-1.0252019E-1,1.370997E-1,3.0803282E-3],"categories":[],"categories_nodes":[],"categories_segments":[],"categories_sizes":[],"default_left":[0,0,0,0,0,0,0,0,0,0,0,0,0,0,0,0,0,0,0,0,0,0,0,0,0,0,0,0,0,0,0,0,0,0,0,0,0],"id":18,"left_children":[1,3,5,7,9,11,13,15,17,-1,-1,19,-1,21,23,25,27,29,31,-1,-1,33,-1,35,-1,-1,-1,-1,-1,-1,-1,-1,-1,-1,-1,-1,-1],"loss_changes":[6.8654655E1,3.732423E1,9.3689E0,3.0094254E1,2.188717E0,6.845536E0,6.2306404E0,9.712759E0,2.431607E1,0E0,0E0,6.957612E-1,0E0,1.4848442E0,5.2614574E0,7.858844E0,1.2807408E1,1.2184158E1,1.4165896E1,0E0,0E0,2.0306396E0,0E0,2.257512E0,0E0,0E0,0E0,0E0,0E0,0E0,0E0,0E0,0E0,0E0,0E0,0E0,0E0],"parents":[2147483647,0,0,1,1,2,2,3,3,4,4,5,5,6,6,7,7,8,8,11,11,13,13,14,14,15,15,16,16,17,17,18,18,21,21,23,23],"right_children":[2,4,6,8,10,12,14,16,18,-1,-1,20,-1,22,24,26,28,30,32,-1,-1,34,-1,36,-1,-1,-1,-1,-1,-1,-1,-1,-1,-1,-1,-1,-1],"split_conditions":[1.0126524E3,8.125272E6,1.6532268E-1,2.498109E6,2.0597396E-2,6.819176E6,3E0,2.3464487E2,8.711375E5,2.399156E-2,-1.0498241E-1,5.588721E6,-8.334674E-2,5.652107E7,3.78887E3,4.61042E5,7.014003E3,1.129478E7,6.510286E2,2.4691848E-2,1.1360166E-1,3.6142393E3,1.3103272E-2,1.441268E5,-8.131256E-2,6.4853714E-3,1.0223734E-1,3.139739E-2,-7.121552E-2,8.708249E-2,4.209607E-2,-2.7320448E-2,9.854128E-2,-6.5325856E-2,-1.0252019E-1,1.370997E-1,3.0803282E-3],"split_indices":[160,2,139,138,139,2,44,160,141,0,0,2,0,141,160,141,144,138,160,0,0,160,0,2,0,0,0,0,0,0,0,0,0,0,0,0,0],"split_type":[0,0,0,0,0,0,0,0,0,0,0,0,0,0,0,0,0,0,0,0,0,0,0,0,0,0,0,0,0,0,0,0,0,0,0,0,0],"sum_hessian":[5.5362195E2,4.6022345E2,9.339851E1,4.3934198E2,2.0881468E1,8.103988E0,8.5294525E1,1.3126802E2,3.0807397E2,1.0479399E0,1.9833529E1,5.659039E0,2.444949E0,7.867096E1,6.6235604E0,7.8705734E1,5.256229E1,2.4959514E2,5.847883E1,1.9155626E0,3.7434764E0,7.7287155E1,1.3838096E0,4.210042E0,2.4135187E0,6.990858E1,8.797158E0,1.7694445E1,3.4867844E1,1.3595035E2,1.136448E2,4.8565834E1,9.9129925E0,4.2924095E1,3.4363056E1,1.9214786E0,2.2885635E0],"tree_param":{"num_deleted":"0","num_feature":"671","num_nodes":"37","size_leaf_vector":"1"}},{"base_weights":[1.3596486E-1,4.6359432E-1,-2.046801E-1,4.0915355E-2,6.222662E-1,-4.4949107E-2,-7.949265E-1,1.3763186E-1,-1.210269E0,8.9221305E-1,2.2175834E-1,-2.3273003E-1,7.4960774E-1,4.9015798E-2,-8.342541E-1,-1.8577157E-1,4.887037E-1,2.5758384E-2,-1.6013609E0,-5.9268612E-2,9.139843E-1,-9.783064E-1,7.362453E-1,-1.23425364E-1,-1.2476964E0,1.115013E0,-8.309001E-1,-1.7811173E-1,-9.0616125E-1,1.4571517E-2,-8.1429E-2,7.2394125E-2,1.1167773E-2,-2.2855435E-1,-4.4631794E-2,9.9834405E-2,5.431309E-2,-1.4470576E-1,1.7565642E-2,8.267134E-2,-4.718354E-2,-3.6813598E-2,6.0764313E-2,-1.1521644E-2,-1.7695081E-1,-1.6214443E-2,1.1658361E-1,1.6506232E-2,-1.0162055E-1,-8.035388E-2,4.8154015E-2,-9.370875E-2,-1.40216425E-2],"categories":[],"categories_nodes":[],"categories_segments":[],"categories_sizes":[],"default_left":[0,0,0,0,0,0,0,0,0,0,0,0,0,0,0,0,0,0,0,0,0,0,0,0,0,0,0,0,0,0,0,0,0,0,0,0,0,0,0,0,0,0,0,0,0,0,0,0,0,0,0,0,0],"id":19,"left_children":[1,3,5,7,9,11,13,15,17,19,21,23,25,-1,27,29,31,-1,33,-1,35,37,39,41,43,45,47,49,51,-1,-1,-1,-1,-1,-1,-1,-1,-1,-1,-1,-1,-1,-1,-1,-1,-1,-1,-1,-1,-1,-1,-1,-1],"loss_changes":[5.9348232E1,1.8145454E1,2.45699E1,9.244588E0,2.1091995E1,3.0978586E1,3.215084E0,8.099027E0,3.5612059E0,4.333832E0,5.0494003E1,1.8456886E1,2.3855923E1,0E0,2.3979874E0,7.918718E0,2.9431105E0,0E0,2.512043E0,0E0,3.0868149E0,1.3571625E1,6.6193256E0,2.751593E1,9.3692875E0,2.3099022E0,1.6494455E0,3.1108198E0,1.0208664E0,0E0,0E0,0E0,0E0,0E0,0E0,0E0,0E0,0E0,0E0,0E0,0E0,0E0,0E0,0E0,0E0,0E0,0E0,0E0,0E0,0E0,0E0,0E0,0E0],"parents":[2147483647,0,0,1,1,2,2,3,3,4,4,5,5,6,6,7,7,8,8,9,9,10,10,11,11,12,12,14,14,15,15,16,16,18,18,20,20,21,21,22,22,23,23,24,24,25,25,26,26,27,27,28,28],"right_children":[2,4,6,8,10,12,14,16,18,20,22,24,26,-1,28,30,32,-1,34,-1,36,38,40,42,44,46,48,50,52,-1,-1,-1,-1,-1,-1,-1,-1,-1,-1,-1,-1,-1,-1,-1,-1,-1,-1,-1,-1,-1,-1,-1,-1],"split_conditions":[1.6055861E4,1.5481799E6,1.7217608E6,1.3471295E6,1.1127711E6,7.013306E7,1.9656525E4,4.9196394E5,2.666195E5,2E0,1.887625E7,1.310025E7,6.819176E6,4.9015798E-2,1.2192921E5,3.460038E5,7.058425E5,2.5758384E-2,8.6E1,-5.9268612E-2,8.291371E3,2.572469E2,9.2396E5,4.241907E6,1.62E2,2.4860361E4,2.3345258E5,4.8188E4,5.652107E7,1.4571517E-2,-8.1429E-2,7.2394125E-2,1.1167773E-2,-2.2855435E-1,-4.4631794E-2,9.9834405E-2,5.431309E-2,-1.4470576E-1,1.7565642E-2,8.267134E-2,-4.718354E-2,-3.6813598E-2,6.0764313E-2,-1.1521644E-2,-1.7695081E-1,-1.6214443E-2,1.1658361E-1,1.6506232E-2,-1.0162055E-1,-8.035388E-2,4.8154015E-2,-9.370875E-2,-1.40216425E-2],"split_indices":[144,5,141,5,2,5,144,5,3,159,3,4,2,0,143,5,4,0,159,0,144,159,141,4,159,143,141,144,141,0,0,0,0,0,0,0,0,0,0,0,0,0,0,0,0,0,0,0,0,0,0,0,0],"split_type":[0,0,0,0,0,0,0,0,0,0,0,0,0,0,0,0,0,0,0,0,0,0,0,0,0,0,0,0,0,0,0,0,0,0,0,0,0,0,0,0,0,0,0,0,0,0,0,0,0,0,0,0,0],"sum_hessian":[5.299186E2,2.699357E2,2.5998285E2,7.401862E1,1.9591708E2,2.0545837E2,5.452447E1,6.953367E1,4.4849515E0,1.163011E2,7.961598E1,1.6675546E2,3.8702915E1,1.2786691E0,5.32458E1,3.643812E1,3.3095547E1,1.0153806E0,3.4695706E0,1.3016144E0,1.1499949E2,2.3619915E1,5.5996067E1,1.515556E2,1.5199856E1,3.1674465E1,7.0284495E0,5.6023273E0,4.7643475E1,2.4359072E1,1.2079052E1,1.9813305E1,1.328224E1,1.5642471E0,1.9053235E0,9.230943E1,2.269006E1,1.6616243E1,7.0036716E0,5.2388588E1,3.6074777E0,1.1391969E2,3.763591E1,5.179553E0,1.0020303E1,1.1283854E0,3.054608E1,1.119689E0,5.9087605E0,2.763798E0,2.838529E0,4.5579678E1,2.0637975E0],"tree_param":{"num_deleted":"0","num_feature":"671","num_nodes":"53","size_leaf_vector":"1"}},{"base_weights":[1.11428246E-1,3.19406E-1,-3.8981003E-1,-8.2188314E-1,3.6933547E-1,-2.537018E-1,-9.764034E-1,4.236891E-1,-1.1149306E0,-1.8238172E-1,4.4988146E-1,-4.3927824E-1,1.0849811E0,-1.0391428E-1,-1.7496842E-1,7.864647E-2,-2.152138E-2,-1.2522659E0,-1.4517809E-2,2.5269014E-1,-6.270661E-1,6.4942354E-1,2.2448896E-1,-2.7879503E-1,-1.2475275E-1,3.706076E-1,1.2168704E0,3.601667E-2,-5.8312215E-2,-5.6615835E-3,-1.3826929E-1,-8.722378E-2,3.7447672E-2,-2.4007438E-2,-1.06264524E-1,8.727244E-2,1.960151E-2,6.1642718E-2,8.249413E-4,-8.235013E-2,-2.2140292E-3,7.802998E-2,-3.7279602E-2,1.2945604E-1,2.9917255E-2],"categories":[],"categories_nodes":[],"categories_segments":[],"categories_sizes":[],"default_left":[0,0,0,0,0,0,0,0,0,0,0,0,0,0,0,0,0,0,0,0,0,0,0,0,0,0,0,0,0,0,0,0,0,0,0,0,0,0,0,0,0,0,0,0,0],"id":20,"left_children":[1,3,5,7,9,11,13,15,17,19,21,23,25,-1,27,-1,-1,29,-1,31,33,35,37,39,-1,41,43,-1,-1,-1,-1,-1,-1,-1,-1,-1,-1,-1,-1,-1,-1,-1,-1,-1,-1],"loss_changes":[5.3958473E1,2.1132492E1,1.187904E1,6.177808E0,1.5675198E1,3.1439072E1,1.2388573E0,1.0272303E0,1.5401134E0,8.944445E0,1.3638203E1,1.3942572E1,1.0058346E0,0E0,9.206967E-1,0E0,0E0,1.6673794E0,0E0,3.5690732E0,3.5789948E0,1.6234253E1,1.2321812E1,1.3012358E1,0E0,1.4627732E0,5.120621E-1,0E0,0E0,0E0,0E0,0E0,0E0,0E0,0E0,0E0,0E0,0E0,0E0,0E0,0E0,0E0,0E0,0E0,0E0],"parents":[2147483647,0,0,1,1,2,2,3,3,4,4,5,5,6,6,7,7,8,8,9,9,10,10,11,11,12,12,14,14,17,17,19,19,20,20,21,21,22,22,23,23,25,25,26,26],"right_children":[2,4,6,8,10,12,14,16,18,20,22,24,26,-1,28,-1,-1,30,-1,32,34,36,38,40,-1,42,44,-1,-1,-1,-1,-1,-1,-1,-1,-1,-1,-1,-1,-1,-1,-1,-1,-1,-1],"split_conditions":[5.3711082E4,1.3E1,8.125272E6,1.493341E3,5.6123504E4,6.698195E7,3.601733E4,3E0,4.559125E4,3.035006E3,8.291371E3,1.310025E7,6.832995E4,-1.0391428E-1,1.5365898E6,7.864647E-2,-2.152138E-2,1.4860931E5,-1.4517809E-2,2.273263E0,3.2553303E4,1.3973877E7,1.4821785E2,9.97548E5,-1.2475275E-1,1.4275676E-1,1.7271497E3,3.601667E-2,-5.8312215E-2,-5.6615835E-3,-1.3826929E-1,-8.722378E-2,3.7447672E-2,-2.4007438E-2,-1.06264524E-1,8.727244E-2,1.960151E-2,6.1642718E-2,8.249413E-4,-8.235013E-2,-2.2140292E-3,7.802998E-2,-3.7279602E-2,1.2945604E-1,2.9917255E-2],"split_indices":[144,0,2,144,2,4,159,19,144,144,144,4,144,0,144,0,0,4,0,159,2,4,159,4,0,139,159,0,0,0,0,0,0,0,0,0,0,0,0,0,0,0,0,0,0],"split_type":[0,0,0,0,0,0,0,0,0,0,0,0,0,0,0,0,0,0,0,0,0,0,0,0,0,0,0,0,0,0,0,0,0,0,0,0,0,0,0,0,0,0,0,0,0],"sum_hessian":[5.154107E2,3.6452277E2,1.5088791E2,1.4630797E1,3.4989197E2,1.2363353E2,2.7254385E1,2.7016923E0,1.1929106E1,4.4412766E1,3.0547922E2,1.0917138E2,1.4462149E1,2.5000635E1,2.25375E0,1.5759119E0,1.1257805E0,1.0194103E1,1.735002E0,2.2667253E1,2.1745514E1,1.6103346E2,1.4444574E2,9.220784E1,1.696354E1,2.8476975E0,1.1614451E1,1.0260521E0,1.227698E0,1.1436955E0,9.050408E0,1.6123308E0,2.1054924E1,1.2336378E1,9.409136E0,1.0727593E2,5.3757538E1,5.0700134E1,9.374561E1,2.8824379E1,6.3383465E1,1.8039198E0,1.0437778E0,1.0329335E1,1.2851157E0],"tree_param":{"num_deleted":"0","num_feature":"671","num_nodes":"45","size_leaf_vector":"1"}},{"base_weights":[1.13447264E-1,2.6161605E-1,-6.199889E-1,3.1655702E-1,-9.407565E-1,2.4843779E-1,-6.966433E-1,1.9486018E-1,8.0075455E-1,-1.0278007E-1,2.0805499E-2,7.064508E-1,-7.421688E-2,-7.682918E-1,1.7247531E-1,3.5887277E-1,-1.077693E0,1.4275368E-2,8.800894E-1,9.265514E-3,1.0059079E-1,7.520415E-2,-8.0176526E-1,7.2316885E-1,-7.5175285E-2,1.1387511E-2,7.727731E-2,-1.2368456E-1,6.0733497E-2,-1.7767815E-1,5.108731E-2,9.471051E-2,1.2238289E-2,-4.41277E-2,6.8349466E-2,-1.078437E-1,-6.288342E-2,1.2299702E-1,-1.2675789E-2],"categories":[],"categories_nodes":[],"categories_segments":[],"categories_sizes":[],"default_left":[0,0,0,0,0,0,0,0,0,0,0,0,0,0,0,0,0,0,0,0,0,0,0,0,0,0,0,0,0,0,0,0,0,0,0,0,0,0,0],"id":21,"left_children":[1,3,5,7,9,11,13,15,17,-1,-1,19,-1,21,23,25,27,29,31,-1,-1,33,35,37,-1,-1,-1,-1,-1,-1,-1,-1,-1,-1,-1,-1,-1,-1,-1],"loss_changes":[5.4669594E1,2.7909399E1,5.8044624E0,2.3441448E1,2.0654202E0,3.9718423E0,4.9894333E0,6.745737E1,4.986141E0,0E0,0E0,9.560356E-1,0E0,2.0999718E0,3.982658E0,2.8854118E1,1.0657196E1,8.341009E0,3.578514E0,0E0,0E0,1.455118E0,2.6503334E0,2.1992416E0,0E0,0E0,0E0,0E0,0E0,0E0,0E0,0E0,0E0,0E0,0E0,0E0,0E0,0E0,0E0],"parents":[2147483647,0,0,1,1,2,2,3,3,4,4,5,5,6,6,7,7,8,8,11,11,13,13,14,14,15,15,16,16,17,17,18,18,21,21,22,22,23,23],"right_children":[2,4,6,8,10,12,14,16,18,-1,-1,20,-1,22,24,26,28,30,32,-1,-1,34,36,38,-1,-1,-1,-1,-1,-1,-1,-1,-1,-1,-1,-1,-1,-1,-1],"split_conditions":[1.0126524E3,8.125272E6,1.4772385E-1,1.8755518E7,2.0770096E7,6.819176E6,3E0,1.3973877E7,9.000027E0,-1.0278007E-1,2.0805499E-2,5.588721E6,-7.421688E-2,1.2998002E4,3.78887E3,4.0964142E6,7.960677E2,7.386375E3,2.0082332E7,9.265514E-3,1.0059079E-1,2E0,2.7627142E6,1.441268E5,-7.5175285E-2,1.1387511E-2,7.727731E-2,-1.2368456E-1,6.0733497E-2,-1.7767815E-1,5.108731E-2,9.471051E-2,1.2238289E-2,-4.41277E-2,6.8349466E-2,-1.078437E-1,-6.288342E-2,1.2299702E-1,-1.2675789E-2],"split_indices":[159,2,139,3,2,2,44,4,159,0,0,2,0,144,159,4,159,142,3,0,0,49,5,2,0,0,0,0,0,0,0,0,0,0,0,0,0,0,0],"split_type":[0,0,0,0,0,0,0,0,0,0,0,0,0,0,0,0,0,0,0,0,0,0,0,0,0,0,0,0,0,0,0,0,0,0,0,0,0,0,0],"sum_hessian":[5.0057565E2,4.1698056E2,8.359511E1,3.9946423E2,1.751632E1,6.5985346E0,7.6996574E1,3.2035062E2,7.9113594E1,1.6380522E1,1.1357979E0,4.708419E0,1.890116E0,7.123972E1,5.7568564E0,2.8441223E2,3.5938393E1,7.357329E0,7.175626E1,1.9732559E0,2.735163E0,2.6715965E0,6.856812E1,3.7437296E0,2.0131269E0,1.7946039E2,1.0495185E2,3.3079937E1,2.8584561E0,1.0375031E0,6.3198256E0,6.5695816E1,6.060453E0,1.5933192E0,1.0782772E0,2.4359394E1,4.420873E1,2.065154E0,1.6785756E0],"tree_param":{"num_deleted":"0","num_feature":"671","num_nodes":"39","size_leaf_vector":"1"}},{"base_weights":[1.277631E-1,2.523205E-1,-5.327014E-1,3.0393103E-1,-9.2441046E-1,-4.4274297E-2,-6.9268304E-1,2.015791E-1,8.046699E-1,-1.0137849E-1,6.0917395E-3,3.8690996E-1,-9.287094E-2,-7.354601E-1,8.365219E-2,3.494414E-1,-6.010757E-1,5.023352E-1,1.0197382E0,-6.478415E-2,5.253562E-1,-8.6890393E-1,-4.0963864E-1,1.4468032E-3,6.0780335E-2,-9.0963006E-2,3.6477398E-2,6.277736E-2,-9.941745E-2,1.0935747E-1,3.7728634E-3,2.4769373E-2,1.1790192E-1,-9.628372E-2,-5.802442E-3,3.9089218E-2,-8.539027E-2],"categories":[],"categories_nodes":[],"categories_segments":[],"categories_sizes":[],"default_left":[0,0,0,0,0,0,0,0,0,0,0,0,0,0,0,0,0,0,0,0,0,0,0,0,0,0,0,0,0,0,0,0,0,0,0,0,0],"id":22,"left_children":[1,3,5,7,9,11,13,15,17,-1,-1,19,-1,21,-1,23,25,27,29,-1,31,33,35,-1,-1,-1,-1,-1,-1,-1,-1,-1,-1,-1,-1,-1,-1],"loss_changes":[4.0261383E1,2.5245182E1,6.041939E0,2.0058548E1,1.6045008E0,8.079043E0,4.440178E0,3.9246475E1,3.8198051E0,0E0,0E0,2.3909845E0,0E0,2.1403236E0,0E0,2.4083557E1,1.5689709E1,6.1927032E0,2.711113E0,0E0,2.099622E0,2.9786339E0,6.9395256E0,0E0,0E0,0E0,0E0,0E0,0E0,0E0,0E0,0E0,0E0,0E0,0E0,0E0,0E0],"parents":[2147483647,0,0,1,1,2,2,3,3,4,4,5,5,6,6,7,7,8,8,11,11,13,13,15,15,16,16,17,17,18,18,20,20,21,21,22,22],"right_children":[2,4,6,8,10,12,14,16,18,-1,-1,20,-1,22,-1,24,26,28,30,-1,32,34,36,-1,-1,-1,-1,-1,-1,-1,-1,-1,-1,-1,-1,-1,-1],"split_conditions":[1.0822584E3,9.735203E7,6.7216814E-1,6.911038E7,2.0770096E7,6.819176E6,4E0,1.1127711E6,6.7079966E3,-1.0137849E-1,6.0917395E-3,1.3E1,-9.287094E-2,2.3366598E5,8.365219E-2,3.827161E5,6.698195E7,9.2396E5,2.0082332E7,-6.478415E-2,5.151485E-1,2E0,6.7435656E5,1.4468032E-3,6.0780335E-2,-9.0963006E-2,3.6477398E-2,6.277736E-2,-9.941745E-2,1.0935747E-1,3.7728634E-3,2.4769373E-2,1.1790192E-1,-9.628372E-2,-5.802442E-3,3.9089218E-2,-8.539027E-2],"split_indices":[159,5,139,4,2,2,48,2,144,0,0,0,0,144,0,3,4,141,3,0,139,53,143,0,0,0,0,0,0,0,0,0,0,0,0,0,0],"split_type":[0,0,0,0,0,0,0,0,0,0,0,0,0,0,0,0,0,0,0,0,0,0,0,0,0,0,0,0,0,0,0,0,0,0,0,0,0],"sum_hessian":[4.8677258E2,4.1005756E2,7.671504E1,3.9353894E2,1.6518602E1,1.924289E1,5.747215E1,3.2791507E2,6.562388E1,1.5118404E1,1.4001986E0,1.3314347E1,5.9285436E0,5.641314E1,1.05901E0,2.7738147E2,5.053362E1,2.8664349E1,3.695953E1,1.1370002E0,1.2177346E1,3.883927E1,1.7573866E1,1.2124281E2,1.5613864E2,3.834271E1,1.2190913E1,2.6983114E1,1.6812344E0,3.426925E1,2.6902823E0,9.514652E0,2.6626947E0,3.4639225E1,4.2000465E0,6.314943E0,1.1258924E1],"tree_param":{"num_deleted":"0","num_feature":"671","num_nodes":"37","size_leaf_vector":"1"}},{"base_weights":[1.1456809E-1,4.5295152E-1,-1.0691705E-1,-1.3351522E-1,5.8894867E-1,1.51364375E-2,-7.333233E-1,-9.1473764E-1,6.1474603E-1,-2.1148112E-2,7.304205E-1,-1.4422499E-1,6.685706E-1,-4.790917E-1,-9.395122E-2,-4.493717E-1,-1.7111257E0,9.589185E-1,-1.4382288E-1,2.8129295E-1,-1.0554231E0,9.418052E-1,4.1673553E-1,-2.6807524E-2,-1.2404085E0,9.8612076E-1,-6.5289533E-1,-6.1239666E-1,1.1168343E-1,2.8508881E-2,-9.4953455E-2,-2.0555238E-1,3.9036684E-3,1.1752472E-1,3.730763E-2,-1.4948499E-1,5.9476353E-2,9.647257E-2,-2.2461538E-3,-1.282447E-1,2.9478644E-3,6.070906E-2,1.03032604E-1,-2.0147574E-3,7.3590025E-2,-2.4737345E-2,6.691742E-2,-1.433997E-1,4.1744012E-2,3.9270658E-2,1.0712879E-1,-7.822108E-2,1.9367376E-2,-1.0330435E-2,-7.891073E-2],"categories":[],"categories_nodes":[],"categories_segments":[],"categories_sizes":[],"default_left":[0,0,0,0,0,0,0,0,0,0,0,0,0,0,0,0,0,0,0,0,0,0,0,0,0,0,0,0,0,0,0,0,0,0,0,0,0,0,0,0,0,0,0,0,0,0,0,0,0,0,0,0,0,0,0],"id":23,"left_children":[1,3,5,7,9,11,13,15,17,19,21,23,25,27,-1,29,31,33,35,37,39,41,43,45,47,49,51,53,-1,-1,-1,-1,-1,-1,-1,-1,-1,-1,-1,-1,-1,-1,-1,-1,-1,-1,-1,-1,-1,-1,-1,-1,-1,-1,-1],"loss_changes":[3.5278004E1,1.4925373E1,2.1794113E1,2.1522146E1,1.3073692E1,2.5028887E1,1.9864502E0,5.881134E0,5.075516E0,9.509175E0,7.752922E0,2.484779E1,2.0417572E1,5.546517E0,0E0,4.9292965E0,3.8545856E0,1.2268467E0,7.6467547E0,4.9160705E0,1.7308083E0,1.5253983E0,7.160695E0,2.7126223E1,6.5940323E0,1.5195274E0,1.2168131E0,1.8742771E0,0E0,0E0,0E0,0E0,0E0,0E0,0E0,0E0,0E0,0E0,0E0,0E0,0E0,0E0,0E0,0E0,0E0,0E0,0E0,0E0,0E0,0E0,0E0,0E0,0E0,0E0,0E0],"parents":[2147483647,0,0,1,1,2,2,3,3,4,4,5,5,6,6,7,7,8,8,9,9,10,10,11,11,12,12,13,13,15,15,16,16,17,17,18,18,19,19,20,20,21,21,22,22,23,23,24,24,25,25,26,26,27,27],"right_children":[2,4,6,8,10,12,14,16,18,20,22,24,26,28,-1,30,32,34,36,38,40,42,44,46,48,50,52,54,-1,-1,-1,-1,-1,-1,-1,-1,-1,-1,-1,-1,-1,-1,-1,-1,-1,-1,-1,-1,-1,-1,-1,-1,-1,-1,-1],"split_conditions":[8.291371E3,1.1844322E1,1.7928142E6,9.190202E3,4.6664547E5,1.8755518E7,6.7435656E5,4.502119E4,2.752138E6,3.841875E5,8.563827E5,3.083608E6,2.0605036E7,4.8324744E5,-9.395122E-2,1.4250298E3,5.885003E3,6.214593E0,1.910788E7,4.761905E3,4E0,1.2818684E5,1.887625E7,5.433177E5,1.2073579E6,7.013306E7,3.3336982E7,3.1261875E6,1.1168343E-1,2.8508881E-2,-9.4953455E-2,-2.0555238E-1,3.9036684E-3,1.1752472E-1,3.730763E-2,-1.4948499E-1,5.9476353E-2,9.647257E-2,-2.2461538E-3,-1.282447E-1,2.9478644E-3,6.070906E-2,1.03032604E-1,-2.0147574E-3,7.3590025E-2,-2.4737345E-2,6.691742E-2,-1.433997E-1,4.1744012E-2,3.9270658E-2,1.0712879E-1,-7.822108E-2,1.9367376E-2,-1.0330435E-2,-7.891073E-2],"split_indices":[144,159,141,142,4,3,143,141,2,4,2,3,3,144,0,144,143,159,3,142,19,2,3,2,141,5,3,141,0,0,0,0,0,0,0,0,0,0,0,0,0,0,0,0,0,0,0,0,0,0,0,0,0,0,0],"split_type":[0,0,0,0,0,0,0,0,0,0,0,0,0,0,0,0,0,0,0,0,0,0,0,0,0,0,0,0,0,0,0,0,0,0,0,0,0,0,0,0,0,0,0,0,0,0,0,0,0,0,0,0,0,0,0],"sum_hessian":[4.6906046E2,1.8514784E2,2.8391263E2,3.48558E1,1.5029204E2,2.3843086E2,4.548175E1,1.6943476E1,1.7912325E1,2.845038E1,1.2184165E2,1.9230922E2,4.6121647E1,2.1856354E1,2.3625397E1,1.1681629E1,5.261847E0,1.2140094E1,5.7722316E0,2.2576597E1,5.873783E0,7.159388E1,5.0247772E1,1.7462839E2,1.7680824E1,3.7390438E1,8.73121E0,2.0740232E1,1.1161209E0,4.90659E0,6.7750387E0,4.2508802E0,1.0109668E0,8.131403E0,4.0086913E0,1.6783143E0,4.0939174E0,6.2771997E0,1.6299398E1,4.7067704E0,1.1670127E0,1.661762E1,5.497626E1,2.1607536E1,2.8640236E1,1.3309377E2,4.1534626E1,1.5953006E1,1.7278193E0,5.397007E0,3.1993433E1,7.6401763E0,1.0910331E0,5.752431E0,1.4987802E1],"tree_param":{"num_deleted":"0","num_feature":"671","num_nodes":"55","size_leaf_vector":"1"}},{"base_weights":[9.163586E-2,2.1235222E-1,-5.146929E-1,2.557564E-1,-8.84297E-1,-5.9018815E-1,3.7178755E-1,3.132546E-1,-4.986132E-1,-9.885099E-2,9.375124E-3,-1.5854543E-1,-7.4886245E-1,8.7506664E-1,-6.930536E-2,-6.982529E-1,3.5228363E-1,-7.154415E-1,5.974835E-1,2.2959334E-1,-9.327108E-2,-9.5913625E-1,-2.8678697E-1,1.123853E0,5.807334E-3,-1.3294871E-2,-1.3944484E-1,2.8352855E-2,7.9724975E-2,3.4028843E-2,-8.014473E-2,1.748513E-1,-2.1990903E-2,1.9107392E-3,9.446405E-2,-5.8439444E-3,-9.925421E-2,3.0061672E-2,-9.305689E-2,1.3973834E-1,4.426458E-2],"categories":[],"categories_nodes":[],"categories_segments":[],"categories_sizes":[],"default_left":[0,0,0,0,0,0,0,0,0,0,0,0,0,0,0,0,0,0,0,0,0,0,0,0,0,0,0,0,0,0,0,0,0,0,0,0,0,0,0,0,0],"id":24,"left_children":[1,3,5,7,9,11,13,15,17,-1,-1,19,21,23,-1,25,27,29,31,33,-1,35,37,39,-1,-1,-1,-1,-1,-1,-1,-1,-1,-1,-1,-1,-1,-1,-1,-1,-1],"loss_changes":[3.344609E1,1.8339752E1,5.3000507E0,1.6067467E1,1.5922413E0,4.6991653E0,4.128104E0,1.3726433E1,6.693646E0,0E0,0E0,6.2768974E0,4.696459E0,9.3155384E-1,0E0,4.9393086E0,9.852882E0,2.3126507E0,4.9938717E0,2.1253781E0,0E0,9.8722076E-1,6.870627E0,7.1799755E-2,0E0,0E0,0E0,0E0,0E0,0E0,0E0,0E0,0E0,0E0,0E0,0E0,0E0,0E0,0E0,0E0,0E0],"parents":[2147483647,0,0,1,1,2,2,3,3,4,4,5,5,6,6,7,7,8,8,11,11,12,12,13,13,15,15,16,16,17,17,18,18,19,19,21,21,22,22,23,23],"right_children":[2,4,6,8,10,12,14,16,18,-1,-1,20,22,24,-1,26,28,30,32,34,-1,36,38,40,-1,-1,-1,-1,-1,-1,-1,-1,-1,-1,-1,-1,-1,-1,-1,-1,-1],"split_conditions":[1.0126524E3,8.125272E6,3E0,7E0,2.0770096E7,6.7216814E-1,3.78887E3,1.3E1,5E0,-9.885099E-2,9.375124E-3,6.5889555E6,2.3366598E5,5E0,-6.930536E-2,1.88009E2,1.9319628E7,4.761905E3,4E0,1.9487354E7,-9.327108E-2,1.2998002E4,1.0111147E6,1.441268E5,5.807334E-3,-1.3294871E-2,-1.3944484E-1,2.8352855E-2,7.9724975E-2,3.4028843E-2,-8.014473E-2,1.748513E-1,-2.1990903E-2,1.9107392E-3,9.446405E-2,-5.8439444E-3,-9.925421E-2,3.0061672E-2,-9.305689E-2,1.3973834E-1,4.426458E-2],"split_indices":[159,2,44,19,2,139,159,0,30,0,0,2,144,29,0,159,3,142,33,3,0,144,143,2,0,0,0,0,0,0,0,0,0,0,0,0,0,0,0,0,0],"split_type":[0,0,0,0,0,0,0,0,0,0,0,0,0,0,0,0,0,0,0,0,0,0,0,0,0,0,0,0,0,0,0,0,0,0,0,0,0,0,0,0,0],"sum_hessian":[4.5445926E2,3.795441E2,7.4915146E1,3.6583167E2,1.37124405E1,6.934386E1,5.571292E0,3.4046603E2,2.5365625E1,1.2382379E1,1.3300617E0,1.9176655E1,5.01672E1,3.9042387E0,1.6670535E0,1.202132E1,3.2844473E2,2.1466446E1,3.8991797E0,1.3241348E1,5.9353065E0,3.3738373E1,1.6428825E1,2.7049465E0,1.1992922E0,7.2915854E0,4.729735E0,2.8590463E2,4.2540096E1,1.3943293E0,2.0072117E1,1.146116E0,2.7530637E0,1.1023207E1,2.2181413E0,1.3048949E0,3.243348E1,8.869293E0,7.5595326E0,1.1798561E0,1.5250905E0],"tree_param":{"num_deleted":"0","num_feature":"671","num_nodes":"41","size_leaf_vector":"1"}},{"base_weights":[8.108001E-2,3.3021626E-1,-1.8206346E-1,1.04681686E-1,5.8678925E-1,9.264205E-2,-4.18704E-1,-1.037638E0,2.1063687E-1,8.0623513E-1,3.3592144E-1,2.838675E-1,-9.3494415E-1,-8.6230814E-1,-2.391895E-1,-1.4578956E0,8.302879E-2,4.0980738E-1,-5.3925353E-1,1.8400265E-1,8.8712764E-1,-8.088014E-1,6.1453104E-1,-8.681952E-2,6.5931284E-1,-1.04024194E-1,-2.4073932E-3,-9.915764E-1,-3.6973852E-1,-7.651695E-2,-7.6293397E-1,-4.9156588E-2,-1.884461E-1,4.5295525E-2,-2.2848004E-2,-1.0716459E-2,5.6925323E-2,5.619939E-2,-9.691434E-2,6.606358E-2,-7.220688E-2,9.1649316E-2,-9.409002E-3,-4.5882156E-3,-1.235134E-1,1.07226625E-1,3.6486454E-2,1.4312877E-2,-8.7502055E-2,7.197029E-2,-6.942982E-2,-1.0603447E-1,1.3744815E-2,1.2329957E-2,-8.885234E-2,3.1315335E-3,-9.180204E-2,-9.0813756E-2,-2.5502113E-3],"categories":[],"categories_nodes":[],"categories_segments":[],"categories_sizes":[],"default_left":[0,0,0,0,0,0,0,0,0,0,0,0,0,0,0,0,0,0,0,0,0,0,0,0,0,0,0,0,0,0,0,0,0,0,0,0,0,0,0,0,0,0,0,0,0,0,0,0,0,0,0,0,0,0,0,0,0,0,0],"id":25,"left_children":[1,3,5,7,9,11,13,15,17,19,21,23,25,27,29,31,33,35,37,39,41,43,45,47,49,-1,-1,51,53,55,57,-1,-1,-1,-1,-1,-1,-1,-1,-1,-1,-1,-1,-1,-1,-1,-1,-1,-1,-1,-1,-1,-1,-1,-1,-1,-1,-1,-1],"loss_changes":[2.9325525E1,1.3228025E1,1.4193431E1,1.5159003E1,5.6318016E0,2.0227001E1,9.123323E0,5.1351852E0,1.7216644E1,2.6794815E0,1.6999239E1,1.208375E1,1.5259743E0,1.7580299E0,7.1655293E0,2.2874851E0,5.471159E-1,7.5192184E0,1.2054535E1,3.8279543E0,1.5188065E0,3.3780546E0,4.4294043E0,8.166435E0,4.018631E0,0E0,0E0,2.1517334E0,2.2916527E0,6.000097E0,2.116517E0,0E0,0E0,0E0,0E0,0E0,0E0,0E0,0E0,0E0,0E0,0E0,0E0,0E0,0E0,0E0,0E0,0E0,0E0,0E0,0E0,0E0,0E0,0E0,0E0,0E0,0E0,0E0,0E0],"parents":[2147483647,0,0,1,1,2,2,3,3,4,4,5,5,6,6,7,7,8,8,9,9,10,10,11,11,12,12,13,13,14,14,15,15,16,16,17,17,18,18,19,19,20,20,21,21,22,22,23,23,24,24,27,27,28,28,29,29,30,30],"right_children":[2,4,6,8,10,12,14,16,18,20,22,24,26,28,30,32,34,36,38,40,42,44,46,48,50,-1,-1,52,54,56,58,-1,-1,-1,-1,-1,-1,-1,-1,-1,-1,-1,-1,-1,-1,-1,-1,-1,-1,-1,-1,-1,-1,-1,-1,-1,-1,-1,-1],"split_conditions":[1.6055861E4,3.2432E4,4.47E2,4.9999757E0,1.9643418E4,1.3016312E6,1.9058862E5,7.386375E3,1.9112803E4,9.326122E0,2.5648E4,2.4621569E5,3.44E2,4.4912266E5,4.1758105E3,1.9722391E3,2.002E3,4.6987294E5,4.900294E1,3.552E3,8.277944E5,2.2263678E4,7.751508E4,1.01200805E5,2.0082332E7,-1.04024194E-1,-2.4073932E-3,6E0,6.230469E-1,7.285077E6,3.601733E4,-4.9156588E-2,-1.884461E-1,4.5295525E-2,-2.2848004E-2,-1.0716459E-2,5.6925323E-2,5.619939E-2,-9.691434E-2,6.606358E-2,-7.220688E-2,9.1649316E-2,-9.409002E-3,-4.5882156E-3,-1.235134E-1,1.07226625E-1,3.6486454E-2,1.4312877E-2,-8.7502055E-2,7.197029E-2,-6.942982E-2,-1.0603447E-1,1.3744815E-2,1.2329957E-2,-8.885234E-2,3.1315335E-3,-9.180204E-2,-9.0813756E-2,-2.5502113E-3],"split_indices":[144,142,159,159,143,141,142,142,142,159,143,142,159,141,159,143,144,5,159,144,142,143,142,143,3,0,0,30,139,2,159,0,0,0,0,0,0,0,0,0,0,0,0,0,0,0,0,0,0,0,0,0,0,0,0,0,0,0,0],"split_type":[0,0,0,0,0,0,0,0,0,0,0,0,0,0,0,0,0,0,0,0,0,0,0,0,0,0,0,0,0,0,0,0,0,0,0,0,0,0,0,0,0,0,0,0,0,0,0,0,0,0,0,0,0,0,0,0,0,0,0],"sum_hessian":[4.4540085E2,2.2865877E2,2.1674207E2,1.2243931E2,1.0621946E2,1.0058542E2,1.1615665E2,9.646431E0,1.1279288E2,5.5477177E1,5.0742283E1,8.541427E1,1.517115E1,3.2367847E1,8.3788795E1,6.796703E0,2.8497276E0,8.948043E1,2.3312447E1,6.7592297E0,4.871795E1,9.560025E0,4.118226E1,4.336632E1,4.204795E1,1.3471765E1,1.6993855E0,2.4836718E1,7.531129E0,6.480634E1,1.898245E1,2.7406008E0,4.0561023E0,1.0951427E0,1.754585E0,2.1169704E1,6.831073E1,6.459043E0,1.6853403E1,4.606754E0,2.1524754E0,4.7366344E1,1.3516017E0,3.8242238E0,5.7358017E0,1.3371795E1,2.7810463E1,3.4205643E1,9.160679E0,4.0700447E1,1.3475028E0,2.3468117E1,1.3686012E0,4.252247E0,3.278882E0,5.8298607E1,6.507738E0,1.5666216E1,3.3162346E0],"tree_param":{"num_deleted":"0","num_feature":"671","num_nodes":"59","size_leaf_vector":"1"}},{"base_weights":[9.604162E-2,1.9068116E-1,-4.6613675E-1,2.2961348E-1,-8.632595E-1,4.9940054E-3,-6.1794454E-1,-6.3720964E-2,3.7742954E-1,-9.753064E-2,1.21506E-2,3.8099E-1,-8.601541E-2,-7.312188E-1,3.091004E-1,3.080707E-1,-2.453892E-1,4.9414957E-1,-1.0697235E-1,8.2550865E-1,6.185581E-3,-9.5171916E-1,-2.7509058E-1,7.074505E-1,-6.2700786E-2,-8.1654035E-2,4.1168455E-2,8.483491E-3,-5.830402E-2,7.212832E-2,1.8738586E-2,-3.0799607E-2,8.0583215E-2,-1.0192951E-2,1.3409738E-1,-8.830526E-2,7.014152E-2,-1.5112228E-2,-1.0118784E-1,2.4427399E-2,-8.972809E-2,1.2359381E-1,-5.8784194E-2],"categories":[],"categories_nodes":[],"categories_segments":[],"categories_sizes":[],"default_left":[0,0,0,0,0,0,0,0,0,0,0,0,0,0,0,0,0,0,0,0,0,0,0,0,0,0,0,0,0,0,0,0,0,0,0,0,0,0,0,0,0,0,0],"id":26,"left_children":[1,3,5,7,9,11,13,15,17,-1,-1,19,-1,21,23,25,27,29,31,33,35,37,39,41,-1,-1,-1,-1,-1,-1,-1,-1,-1,-1,-1,-1,-1,-1,-1,-1,-1,-1,-1],"loss_changes":[2.3251436E1,1.5516911E1,4.5103016E0,1.5669142E1,1.6091557E0,5.646081E0,5.231827E0,8.299337E0,1.3626064E1,0E0,0E0,2.0091088E0,0E0,4.040476E0,2.6412E0,5.044794E0,9.2312355E0,1.3356308E1,8.95244E0,2.7769752E0,5.2972913E0,1.2163525E0,5.1783175E0,3.8781726E0,0E0,0E0,0E0,0E0,0E0,0E0,0E0,0E0,0E0,0E0,0E0,0E0,0E0,0E0,0E0,0E0,0E0,0E0,0E0],"parents":[2147483647,0,0,1,1,2,2,3,3,4,4,5,5,6,6,7,7,8,8,11,11,13,13,14,14,15,15,16,16,17,17,18,18,19,19,20,20,21,21,22,22,23,23],"right_children":[2,4,6,8,10,12,14,16,18,-1,-1,20,-1,22,24,26,28,30,32,34,36,38,40,42,-1,-1,-1,-1,-1,-1,-1,-1,-1,-1,-1,-1,-1,-1,-1,-1,-1,-1,-1],"split_conditions":[1.0822584E3,8.125272E6,6.7216814E-1,2.498109E6,2.0770096E7,6.819176E6,3E0,3.035006E3,9.043309E5,-9.753064E-2,1.21506E-2,3.4818882E6,-8.601541E-2,2.3366598E5,7E0,3.000122E0,2.3464487E2,1.02786106E6,6.510286E2,1.1185134E5,1.910788E7,1.19529E5,1.0111147E6,6.936321E5,-6.2700786E-2,-8.1654035E-2,4.1168455E-2,8.483491E-3,-5.830402E-2,7.212832E-2,1.8738586E-2,-3.0799607E-2,8.0583215E-2,-1.0192951E-2,1.3409738E-1,-8.830526E-2,7.014152E-2,-1.5112228E-2,-1.0118784E-1,2.4427399E-2,-8.972809E-2,1.2359381E-1,-5.8784194E-2],"split_indices":[159,2,139,138,2,2,44,144,141,0,0,3,0,144,25,159,159,2,159,142,3,141,143,141,0,0,0,0,0,0,0,0,0,0,0,0,0,0,0,0,0,0,0],"split_type":[0,0,0,0,0,0,0,0,0,0,0,0,0,0,0,0,0,0,0,0,0,0,0,0,0,0,0,0,0,0,0,0,0,0,0,0,0,0,0,0,0,0,0],"sum_hessian":[4.3435114E2,3.72332E2,6.201916E1,3.5982236E2,1.2509618E1,1.5349517E1,4.6669643E1,1.207561E2,2.3906627E2,1.1240299E1,1.2693188E0,1.1089578E1,4.2599397E0,4.1776295E1,4.8933496E0,3.940872E1,8.134738E1,1.9263048E2,4.643579E1,4.5229025E0,6.5666747E0,2.7429758E1,1.4346538E1,3.603981E0,1.2893685E0,2.7440925E0,3.6664627E1,4.1504524E1,3.9842857E1,1.0990414E2,8.272634E1,3.8598057E1,7.8377323E0,1.902369E0,2.6205337E0,2.762772E0,3.8039024E0,2.1625562E0,2.52672E1,8.150456E0,6.1960816E0,2.5921788E0,1.0118023E0],"tree_param":{"num_deleted":"0","num_feature":"671","num_nodes":"43","size_leaf_vector":"1"}},{"base_weights":[8.281518E-2,1.9159633E-1,-3.8951936E-1,-7.1431315E-1,2.333788E-1,-2.2272603E-1,-8.3118707E-1,6.801992E-2,-1.20491125E-1,1.260184E-1,5.416415E-1,-7.119752E-1,2.9017556E-2,-9.002268E-2,-1.5353084E-1,-9.748707E-2,4.665912E-1,3.293879E-1,-1.3720027E-1,6.137973E-1,-4.3124846E-1,1.2168781E-2,-9.179897E-1,1.675302E-1,-6.951754E-1,-5.7377018E-2,3.830148E-2,-1.52052315E-2,7.602554E-2,1.5932458E-2,8.3808385E-2,2.3858465E-2,-4.124853E-2,6.538172E-2,-7.711933E-2,5.169336E-2,-7.1266614E-2,-3.8448557E-2,8.8659085E-2,-1.0521096E-1,-2.8896597E-3,-6.0193688E-2,3.2628853E-2,-9.124928E-2,2.523658E-2],"categories":[],"categories_nodes":[],"categories_segments":[],"categories_sizes":[],"default_left":[0,0,0,0,0,0,0,0,0,0,0,0,0,0,0,0,0,0,0,0,0,0,0,0,0,0,0,0,0,0,0,0,0,0,0,0,0,0,0,0,0,0,0,0,0],"id":27,"left_children":[1,3,5,7,9,11,13,15,-1,17,19,21,23,-1,25,-1,27,29,31,33,35,37,39,41,43,-1,-1,-1,-1,-1,-1,-1,-1,-1,-1,-1,-1,-1,-1,-1,-1,-1,-1,-1,-1],"loss_changes":[2.1878838E1,1.3247864E1,5.6911335E0,6.0245333E0,1.0889954E1,7.3203654E0,8.676758E-1,3.328728E0,0E0,1.3261098E1,6.2475967E0,3.0209017E0,4.138179E0,0E0,9.3982977E-1,0E0,1.1472232E0,1.1940784E1,1.1303321E1,4.924818E0,2.0953267E0,2.2329996E0,1.8440542E0,4.406206E0,1.5957911E0,0E0,0E0,0E0,0E0,0E0,0E0,0E0,0E0,0E0,0E0,0E0,0E0,0E0,0E0,0E0,0E0,0E0,0E0,0E0,0E0],"parents":[2147483647,0,0,1,1,2,2,3,3,4,4,5,5,6,6,7,7,9,9,10,10,11,11,12,12,14,14,16,16,17,17,18,18,19,19,20,20,21,21,22,22,23,23,24,24],"right_children":[2,4,6,8,10,12,14,16,-1,18,20,22,24,-1,26,-1,28,30,32,34,36,38,40,42,44,-1,-1,-1,-1,-1,-1,-1,-1,-1,-1,-1,-1,-1,-1,-1,-1,-1,-1,-1,-1],"split_conditions":[9.722667E4,1.3E1,1.160037E6,1.88009E2,2.4048506E5,2.3154119E5,3.601733E4,3.000122E0,-1.20491125E-1,8.291371E3,1.5083184E3,7.3413146E-1,4.1758105E3,-9.002268E-2,9.865013E6,-9.748707E-2,8.651993E5,2.88166E2,2.3464487E2,2.0141691E6,2.723562E5,4.9008647E-1,3E0,9.97548E5,3.601733E4,-5.7377018E-2,3.830148E-2,-1.52052315E-2,7.602554E-2,1.5932458E-2,8.3808385E-2,2.3858465E-2,-4.124853E-2,6.538172E-2,-7.711933E-2,5.169336E-2,-7.1266614E-2,-3.8448557E-2,8.8659085E-2,-1.0521096E-1,-2.8896597E-3,-6.0193688E-2,3.2628853E-2,-9.124928E-2,2.523658E-2],"split_indices":[144,0,142,159,142,143,159,159,0,144,159,139,159,0,2,0,3,159,159,142,142,139,41,4,159,0,0,0,0,0,0,0,0,0,0,0,0,0,0,0,0,0,0,0,0],"split_type":[0,0,0,0,0,0,0,0,0,0,0,0,0,0,0,0,0,0,0,0,0,0,0,0,0,0,0,0,0,0,0,0,0,0,0,0,0,0,0,0,0,0,0,0,0],"sum_hessian":[4.2336246E2,3.4459482E2,7.876765E1,1.4483074E1,3.3011176E2,5.826753E1,2.0500122E1,5.913868E0,8.569206E0,2.4588484E2,8.42269E1,1.9174606E1,3.9092922E1,1.83066E1,2.1935205E0,1.2354114E0,4.6784563E0,1.3857042E2,1.0731443E2,7.875502E1,5.471881E0,4.455253E0,1.4719354E1,3.3461567E1,5.631354E0,1.1911759E0,1.0023446E0,1.6611793E0,3.0172772E0,1.0483573E2,3.3734676E1,4.5431E1,6.1883434E1,7.7056366E1,1.6986516E0,1.0608069E0,4.411074E0,3.4503891E0,1.0048641E0,1.2630662E1,2.0886912E0,5.2456264E0,2.821594E1,4.6108503E0,1.0205038E0],"tree_param":{"num_deleted":"0","num_feature":"671","num_nodes":"45","size_leaf_vector":"1"}},{"base_weights":[8.515187E-2,-8.65966E-1,1.3457683E-1,-1.2016827E-1,-1.0837636E0,1.8019983E-1,-8.089402E-1,-1.0649385E-1,5.039363E-1,-2.4874326E-2,-1.1474303E-1,7.7211164E-2,7.013246E-1,-9.802028E-2,-6.0690176E-2,7.124042E-2,-3.981426E-3,2.0490268E-1,-7.501892E-1,5.34017E-1,1.029876E0,5.687481E-2,-6.654646E-2,-2.7093994E-3,5.6035228E-2,-1.13586955E-1,-3.3280488E-2,6.7471854E-2,-1.566479E-2,1.071405E-1,3.7559237E-2],"categories":[],"categories_nodes":[],"categories_segments":[],"categories_sizes":[],"default_left":[0,0,0,0,0,0,0,0,0,0,0,0,0,0,0,0,0,0,0,0,0,0,0,0,0,0,0,0,0,0,0],"id":28,"left_children":[1,3,5,7,9,11,13,-1,15,-1,-1,17,19,-1,21,-1,-1,23,25,27,29,-1,-1,-1,-1,-1,-1,-1,-1,-1,-1],"loss_changes":[1.9768806E1,3.246029E0,1.7289652E1,3.9699836E0,5.6321526E-1,2.0378872E1,2.3178787E0,0E0,5.0278103E-1,0E0,0E0,3.3858368E1,2.8966217E0,0E0,2.099617E0,0E0,0E0,2.286985E1,6.522333E0,4.3447485E0,1.4316368E-1,0E0,0E0,0E0,0E0,0E0,0E0,0E0,0E0,0E0,0E0],"parents":[2147483647,0,0,1,1,2,2,3,3,4,4,5,5,6,6,8,8,11,11,12,12,14,14,17,17,18,18,19,19,20,20],"right_children":[2,4,6,8,10,12,14,-1,16,-1,-1,18,20,-1,22,-1,-1,24,26,28,30,-1,-1,-1,-1,-1,-1,-1,-1,-1,-1],"split_conditions":[1.3E1,2.8970063E3,9.735203E7,2.7329568E4,1.1417853E-1,6.855139E7,1.1080212E7,-1.0649385E-1,8.7888825E5,-2.4874326E-2,-1.1474303E-1,1.3973877E7,2.884787E4,-9.802028E-2,6.7435656E5,7.124042E-2,-3.981426E-3,3.121599E6,6.936321E5,6.0699145E6,7.879896E7,5.687481E-2,-6.654646E-2,-2.7093994E-3,5.6035228E-2,-1.13586955E-1,-3.3280488E-2,6.7471854E-2,-1.566479E-2,1.071405E-1,3.7559237E-2],"split_indices":[0,144,5,141,139,140,2,0,2,0,0,140,144,0,143,0,0,140,141,2,5,0,0,0,0,0,0,0,0,0,0],"split_type":[0,0,0,0,0,0,0,0,0,0,0,0,0,0,0,0,0,0,0,0,0,0,0,0,0,0,0,0,0,0,0],"sum_hessian":[4.170537E2,1.9785578E1,3.9726813E2,4.8227887E0,1.4962789E1,3.7971628E2,1.7551859E1,1.637537E0,3.185252E0,1.4076563E0,1.3555133E1,3.1801572E2,6.170054E1,1.4030506E1,3.5213535E0,2.0782912E0,1.1069608E0,2.761502E2,4.1865513E1,4.262173E1,1.907881E1,1.754682E0,1.7666714E0,1.676508E2,1.0849941E2,2.086448E1,2.1001034E1,3.5427555E1,7.1941733E0,1.7340635E1,1.738174E0],"tree_param":{"num_deleted":"0","num_feature":"671","num_nodes":"31","size_leaf_vector":"1"}},{"base_weights":[1.06261976E-1,2.1296412E-1,-3.1954286E-1,-6.1063103E-2,4.5257232E-1,-1.9012177E-1,-8.562966E-1,1.7181639E-2,-7.2574335E-1,7.1233624E-1,1.7676929E-1,-3.0932868E-1,4.9223474E-1,-9.635241E-2,2.0429973E-2,-4.8274614E-2,7.548596E-1,4.079609E-2,-9.173765E-1,7.799811E-1,-2.6665926E-1,-7.7857894E-1,6.3795054E-1,-1.6397081E-1,-1.2019868E0,-7.151053E-2,7.85933E-1,1.6314348E-2,-2.5734589E-2,-8.439907E-2,1.0995169E-1,-7.358446E-2,1.261948E-1,-9.941178E-2,1.3727731E-5,-3.688548E-2,8.2742535E-2,6.419154E-2,-1.2279258E-1,-3.9628096E-2,-1.6419317E-1,7.429552E-2,-5.9355658E-2,5.0346583E-2,-3.7735887E-2,-3.4195542E-2,-1.2791957E-1,1.15074016E-1,-3.5521302E-2],"categories":[],"categories_nodes":[],"categories_segments":[],"categories_sizes":[],"default_left":[0,0,0,0,0,0,0,0,0,0,0,0,0,0,0,0,0,0,0,0,0,0,0,0,0,0,0,0,0,0,0,0,0,0,0,0,0,0,0,0,0,0,0,0,0,0,0,0,0],"id":29,"left_children":[1,3,5,7,9,11,13,15,17,19,21,23,25,-1,-1,27,29,31,33,35,37,39,41,43,45,-1,47,-1,-1,-1,-1,-1,-1,-1,-1,-1,-1,-1,-1,-1,-1,-1,-1,-1,-1,-1,-1,-1,-1],"loss_changes":[1.877996E1,2.1689991E1,5.597723E0,8.062624E0,1.2492947E1,5.691592E0,1.9965162E0,6.7704663E0,2.435525E0,6.1929245E0,3.8721924E1,7.404733E0,4.2900605E0,0E0,0E0,5.745557E0,7.2245755E0,4.933169E0,9.2272377E-1,4.9266243E0,6.5404525E0,8.820923E0,8.078625E0,7.5304604E0,9.684944E-2,0E0,4.1274796E0,0E0,0E0,0E0,0E0,0E0,0E0,0E0,0E0,0E0,0E0,0E0,0E0,0E0,0E0,0E0,0E0,0E0,0E0,0E0,0E0,0E0,0E0],"parents":[2147483647,0,0,1,1,2,2,3,3,4,4,5,5,6,6,7,7,8,8,9,9,10,10,11,11,12,12,15,15,16,16,17,17,18,18,19,19,20,20,21,21,22,22,23,23,24,24,26,26],"right_children":[2,4,6,8,10,12,14,16,18,20,22,24,26,-1,-1,28,30,32,34,36,38,40,42,44,46,-1,48,-1,-1,-1,-1,-1,-1,-1,-1,-1,-1,-1,-1,-1,-1,-1,-1,-1,-1,-1,-1,-1,-1],"split_conditions":[8.711375E5,3.3227728E6,8.125272E6,1.3510858E3,3.083608E6,7.172099E7,5.652107E7,2E0,8.504076E4,6E0,5.713545E6,5.0056215E6,2.4048506E5,-9.635241E-2,2.0429973E-2,8.291371E3,5.2584254E4,2.893183E5,2E0,1.3E1,3.0337922E5,1.5956001E7,6.819176E6,1.5507424E4,3.2591482E3,-7.151053E-2,1.0126524E3,1.6314348E-2,-2.5734589E-2,-8.439907E-2,1.0995169E-1,-7.358446E-2,1.261948E-1,-9.941178E-2,1.3727731E-5,-3.688548E-2,8.2742535E-2,6.419154E-2,-1.2279258E-1,-3.9628096E-2,-1.6419317E-1,7.429552E-2,-5.9355658E-2,5.0346583E-2,-3.7735887E-2,-3.4195542E-2,-1.2791957E-1,1.15074016E-1,-3.5521302E-2],"split_indices":[141,138,2,159,3,138,141,54,2,19,2,2,142,0,0,144,2,4,55,0,2,3,2,144,144,0,159,0,0,0,0,0,0,0,0,0,0,0,0,0,0,0,0,0,0,0,0,0,0],"split_type":[0,0,0,0,0,0,0,0,0,0,0,0,0,0,0,0,0,0,0,0,0,0,0,0,0,0,0,0,0,0,0,0,0,0,0,0,0,0,0,0,0,0,0,0,0,0,0,0,0],"sum_hessian":[4.1084555E2,3.2892126E2,8.19243E1,1.5378764E2,1.7513362E2,6.709957E1,1.4824723E1,1.384623E2,1.5325336E1,8.937417E1,8.575945E1,5.7586033E1,9.51354E0,1.3546665E1,1.2780576E0,1.2803587E2,1.0426427E1,3.2224667E0,1.2102869E1,8.3788025E1,5.5861497E0,2.7696743E1,5.806271E1,5.0539944E1,7.046091E0,1.5807081E0,7.9328322E0,6.3769867E1,6.426601E1,1.5920749E0,8.834352E0,2.2126565E0,1.0098102E0,1.1091667E1,1.0112022E0,3.0543416E0,8.073368E1,3.0425737E0,2.5435758E0,2.0207664E1,7.489078E0,5.386648E1,4.196227E0,1.1914451E1,3.8625492E1,1.0276823E0,6.018409E0,6.0047855E0,1.9280465E0],"tree_param":{"num_deleted":"0","num_feature":"671","num_nodes":"49","size_leaf_vector":"1"}},{"base_weights":[2.9412651E-2,-8.926949E-1,7.5550914E-2,-1.6254418E-1,-1.173291E0,1.1590361E-1,-8.656168E-1,-1.098186E-1,2.3453449E-1,-1.22463755E-1,-3.7472058E-2,1.7483221E-1,-5.9770095E-1,-9.740895E-2,1.5214135E-2,8.549779E-2,-5.3981643E-2,1.0345875E-1,5.856675E-1,-7.8469527E-1,-2.9858427E-2,2.3889165E-2,-6.0746927E-2,7.535209E-3,7.38626E-2,-2.7069692E-2,-1.0440854E-1,-8.162567E-2,4.457438E-2],"categories":[],"categories_nodes":[],"categories_segments":[],"categories_sizes":[],"default_left":[0,0,0,0,0,0,0,0,0,0,0,0,0,0,0,0,0,0,0,0,0,0,0,0,0,0,0,0,0],"id":30,"left_children":[1,3,5,7,9,11,13,-1,15,-1,-1,17,19,-1,-1,-1,-1,21,23,25,27,-1,-1,-1,-1,-1,-1,-1,-1],"loss_changes":[1.7057438E1,3.723978E0,1.4579294E1,2.6595695E0,1.0048485E-1,1.5514257E1,1.8915949E0,0E0,3.0381365E0,0E0,0E0,9.887703E0,2.9686928E0,0E0,0E0,0E0,0E0,2.8092915E1,3.8473415E0,2.5383625E0,3.3635163E0,0E0,0E0,0E0,0E0,0E0,0E0,0E0,0E0],"parents":[2147483647,0,0,1,1,2,2,3,3,4,4,5,5,6,6,8,8,11,11,12,12,17,17,18,18,19,19,20,20],"right_children":[2,4,6,8,10,12,14,-1,16,-1,-1,18,20,-1,-1,-1,-1,22,24,26,28,-1,-1,-1,-1,-1,-1,-1,-1],"split_conditions":[1.3E1,1.3319092E4,9.735203E7,8.381192E0,6.5879536E7,8E0,3.601733E4,-1.098186E-1,2.401768E-1,-1.22463755E-1,-3.7472058E-2,6.911038E7,9.97548E5,-9.740895E-2,1.5214135E-2,8.549779E-2,-5.3981643E-2,1.3973877E7,2.7163756E4,3.07759E5,2.466528E5,2.3889165E-2,-6.0746927E-2,7.535209E-3,7.38626E-2,-2.7069692E-2,-1.0440854E-1,-8.162567E-2,4.457438E-2],"split_indices":[0,143,5,159,4,19,159,0,139,0,0,4,4,0,0,0,0,4,142,4,143,0,0,0,0,0,0,0,0],"split_type":[0,0,0,0,0,0,0,0,0,0,0,0,0,0,0,0,0,0,0,0,0,0,0,0,0,0,0,0,0],"sum_hessian":[3.9834702E2,1.810747E1,3.8023953E2,5.4652905E0,1.2642179E1,3.6544775E2,1.4791773E1,1.1022888E0,4.363002E0,1.1377115E1,1.265063E0,